{"learner":{"attributes":{"scikit_learn":"{\"_estimator_type\": \"regressor\"}"},"feature_names":[],"feature_types":[],"gradient_booster":{"model":{"gbtree_model_param":{"num_parallel_tree":"1","num_trees":"100"},"iteration_indptr":[0,1,2,3,4,5,6,7,8,9,10,11,12,13,14,15,16,17,18,19,20,21,22,23,24,25,26,27,28,29,30,31,32,33,34,35,36,37,38,39,40,41,42,43,44,45,46,47,48,49,50,51,52,53,54,55,56,57,58,59,60,61,62,63,64,65,66,67,68,69,70,71,72,73,74,75,76,77,78,79,80,81,82,83,84,85,86,87,88,89,90,91,92,93,94,95,96,97,98,99,100],"tree_info":[0,0,0,0,0,0,0,0,0,0,0,0,0,0,0,0,0,0,0,0,0,0,0,0,0,0,0,0,0,0,0,0,0,0,0,0,0,0,0,0,0,0,0,0,0,0,0,0,0,0,0,0,0,0,0,0,0,0,0,0,0,0,0,0,0,0,0,0,0,0,0,0,0,0,0,0,0,0,0,0,0,0,0,0,0,0,0,0,0,0,0,0,0,0,0,0,0,0,0,0],"trees":[{"base_weights":[1.6001043E-1,-1.6260503E2,4.3145355E1,-1.9122621E2,-1.00197136E2,2.4021163E0,8.316724E1,-1.9804438E1,-1.726984E1,-1.1950175E1,-7.751056E0,-3.5735595E0,1.405356E0,6.8655314E0,1.2467628E1],"categories":[],"categories_nodes":[],"categories_segments":[],"categories_sizes":[],"default_left":[0,0,0,0,0,0,0,0,0,0,0,0,0,0,0],"id":0,"left_children":[1,3,5,7,9,11,13,-1,-1,-1,-1,-1,-1,-1,-1],"loss_changes":[1.78831E7,9.34664E5,3.2969162E6,1.1905E4,6.5189875E4,4.4619472E5,6.05864E5,0E0,0E0,0E0,0E0,0E0,0E0,0E0,0E0],"parents":[2147483647,0,0,1,1,2,2,3,3,4,4,5,5,6,6],"right_children":[2,4,6,8,10,12,14,-1,-1,-1,-1,-1,-1,-1,-1],"split_conditions":[-5.974543E-1,-1.3883911E0,4.0919256E-1,-1.8198112E0,-8.850677E-1,-2.3793757E-1,1.128226E0,-1.9804438E1,-1.726984E1,-1.1950175E1,-7.751056E0,-3.5735595E0,1.405356E0,6.8655314E0,1.2467628E1],"split_indices":[1,1,1,1,1,1,1,0,0,0,0,0,0,0,0],"split_type":[0,0,0,0,0,0,0,0,0,0,0,0,0,0,0],"sum_hessian":[2.554E3,5.33E2,2.021E3,3.64E2,1.69E2,1.002E3,1.019E3,2.59E2,1.05E2,8.9E1,8E1,2.34E2,7.68E2,7.57E2,2.62E2],"tree_param":{"num_deleted":"0","num_feature":"81","num_nodes":"15","size_leaf_vector":"1"}},{"base_weights":[-1.8409525E0,-1.3437576E2,4.4994576E1,-1.6800284E2,-7.303152E1,1.5891302E1,9.959983E1,-1.750994E1,-1.35577345E1,-9.369402E0,-6.1229296E0,-9.0090626E-1,3.7853642E0,9.045052E0,1.6377087E1],"categories":[],"categories_nodes":[],"categories_segments":[],"categories_sizes":[],"default_left":[0,0,0,0,0,0,0,0,0,0,0,0,0,0,0],"id":1,"left_children":[1,3,5,7,9,11,13,-1,-1,-1,-1,-1,-1,-1,-1],"loss_changes":[1.5927867E7,1.369825E6,3.011525E6,7.5669E4,5.25465E4,6.773664E5,3.72099E5,0E0,0E0,0E0,0E0,0E0,0E0,0E0,0E0],"parents":[2147483647,0,0,1,1,2,2,3,3,4,4,5,5,6,6],"right_children":[2,4,6,8,10,12,14,-1,-1,-1,-1,-1,-1,-1,-1],"split_conditions":[-4.544505E-1,-1.1990942E0,7.1570396E-1,-1.5182272E0,-7.7358353E-1,1.8381558E-1,1.6731031E0,-1.750994E1,-1.35577345E1,-9.369402E0,-6.1229296E0,-9.0090626E-1,3.7853642E0,9.045052E0,1.6377087E1],"split_indices":[0,0,0,0,0,0,0,0,0,0,0,0,0,0,0],"split_type":[0,0,0,0,0,0,0,0,0,0,0,0,0,0,0],"sum_hessian":[2.564E3,6.69E2,1.895E3,4.31E2,2.38E2,1.237E3,6.58E2,3.5E2,8.1E1,8.4E1,1.54E2,5.8E2,6.57E2,5.78E2,8E1],"tree_param":{"num_deleted":"0","num_feature":"81","num_nodes":"15","size_leaf_vector":"1"}},{"base_weights":[-4.647187E-2,-1.1873473E2,4.114647E1,-1.5127855E2,-6.480239E1,1.5175414E1,8.9529465E1,-1.5763478E1,-1.193385E1,-7.288942E0,-2.5467613E0,-1.3003731E0,3.167222E0,7.420263E0,1.2164054E1],"categories":[],"categories_nodes":[],"categories_segments":[],"categories_sizes":[],"default_left":[0,0,0,0,0,0,0,0,0,0,0,0,0,0,0],"id":2,"left_children":[1,3,5,7,9,11,13,-1,-1,-1,-1,-1,-1,-1,-1],"loss_changes":[1.2467248E7,1.143339E6,2.3773048E6,6.4223E4,7.7351E4,5.735915E5,3.162925E5,0E0,0E0,0E0,0E0,0E0,0E0,0E0,0E0],"parents":[2147483647,0,0,1,1,2,2,3,3,4,4,5,5,6,6],"right_children":[2,4,6,8,10,12,14,-1,-1,-1,-1,-1,-1,-1,-1],"split_conditions":[-4.544505E-1,-1.1990942E0,7.1570396E-1,-1.5182272E0,6.141875E-1,7.743791E-2,1.4561045E0,-1.5763478E1,-1.193385E1,-7.288942E0,-2.5467613E0,-1.3003731E0,3.167222E0,7.420263E0,1.2164054E1],"split_indices":[0,0,0,0,2,0,2,0,0,0,0,0,0,0,0],"split_type":[0,0,0,0,0,0,0,0,0,0,0,0,0,0,0],"sum_hessian":[2.548E3,6.56E2,1.892E3,4.08E2,2.48E2,1.232E3,6.6E2,3.37E2,7.1E1,2.05E2,4.3E1,4.55E2,7.77E2,4.49E2,2.11E2],"tree_param":{"num_deleted":"0","num_feature":"81","num_nodes":"15","size_leaf_vector":"1"}},{"base_weights":[-1.1277596E0,-9.991491E1,3.917409E1,-1.362648E2,-5.3303318E1,1.5291807E1,8.224957E1,-1.4113652E1,-1.0041904E1,-6.1368823E0,-2.009715E0,-1.8532293E-1,3.7939243E0,6.7823853E0,1.1201892E1],"categories":[],"categories_nodes":[],"categories_segments":[],"categories_sizes":[],"default_left":[0,0,0,0,0,0,0,0,0,0,0,0,0,0,0],"id":3,"left_children":[1,3,5,7,9,11,13,-1,-1,-1,-1,-1,-1,-1,-1],"loss_changes":[1.0140316E7,1.24315E6,1.8597345E6,5.81235E4,8.5809625E4,4.5242944E5,2.69394E5,0E0,0E0,0E0,0E0,0E0,0E0,0E0,0E0],"parents":[2147483647,0,0,1,1,2,2,3,3,4,4,5,5,6,6],"right_children":[2,4,6,8,10,12,14,-1,-1,-1,-1,-1,-1,-1,-1],"split_conditions":[-3.480728E-1,-1.1990942E0,7.1570396E-1,-1.4118496E0,6.141875E-1,6.141875E-1,1.4561045E0,-1.4113652E1,-1.0041904E1,-6.1368823E0,-2.009715E0,-1.8532293E-1,3.7939243E0,6.7823853E0,1.1201892E1],"split_indices":[0,0,0,0,2,2,2,0,0,0,0,0,0,0,0],"split_type":[0,0,0,0,0,0,0,0,0,0,0,0,0,0,0],"sum_hessian":[2.545E3,7.37E2,1.808E3,4.13E2,3.24E2,1.164E3,6.44E2,3.61E2,5.2E1,2.6E2,6.4E1,6.63E2,5.01E2,4.36E2,2.08E2],"tree_param":{"num_deleted":"0","num_feature":"81","num_nodes":"15","size_leaf_vector":"1"}},{"base_weights":[5.4934764E-1,-1.0271658E2,3.107942E1,-1.2336068E2,-5.9834797E1,-1.3032453E0,5.959445E1,-1.3246556E1,-1.0742415E1,-7.2559943E0,-4.493779E0,-1.9205672E0,1.2661082E0,4.424843E0,8.798116E0],"categories":[],"categories_nodes":[],"categories_segments":[],"categories_sizes":[],"default_left":[0,0,0,0,0,0,0,0,0,0,0,0,0,0,0],"id":4,"left_children":[1,3,5,7,9,11,13,-1,-1,-1,-1,-1,-1,-1,-1],"loss_changes":[8.1655745E6,5.15805E5,1.8459398E6,4.35195E4,3.3515312E4,2.3448878E5,4.59174E5,0E0,0E0,0E0,0E0,0E0,0E0,0E0,0E0],"parents":[2147483647,0,0,1,1,2,2,3,3,4,4,5,5,6,6],"right_children":[2,4,6,8,10,12,14,-1,-1,-1,-1,-1,-1,-1,-1],"split_conditions":[-5.6082815E-1,-1.1726811E0,3.9657095E-1,-1.7309827E0,-7.7358353E-1,-2.8939767E-2,1.034837E0,-1.3246556E1,-1.0742415E1,-7.2559943E0,-4.493779E0,-1.9205672E0,1.2661082E0,4.424843E0,8.798116E0],"split_indices":[0,1,0,0,0,0,0,0,0,0,0,0,0,0,0],"split_type":[0,0,0,0,0,0,0,0,0,0,0,0,0,0,0],"sum_hessian":[2.588E3,5.9E2,1.998E3,3.97E2,1.93E2,9.36E2,1.062E3,2.48E2,1.49E2,1.02E2,9.1E1,4.1E2,5.26E2,6.91E2,3.71E2],"tree_param":{"num_deleted":"0","num_feature":"81","num_nodes":"15","size_leaf_vector":"1"}},{"base_weights":[-3.0969137E-1,-9.228131E1,2.814448E1,-1.1039173E2,-5.3157627E1,-9.3953377E-1,5.2541042E1,-1.191752E1,-9.555552E0,-5.725585E0,-2.0198858E0,-7.271968E-1,4.5331116E0,3.7997787E0,8.075927E0],"categories":[],"categories_nodes":[],"categories_segments":[],"categories_sizes":[],"default_left":[0,0,0,0,0,0,0,0,0,0,0,0,0,0,0],"id":5,"left_children":[1,3,5,7,9,11,13,-1,-1,-1,-1,-1,-1,-1,-1],"loss_changes":[6.7229925E6,4.242195E5,1.3921865E6,4.2562E4,2.5047562E4,2.628629E5,4.3481175E5,0E0,0E0,0E0,0E0,0E0,0E0,0E0,0E0],"parents":[2147483647,0,0,1,1,2,2,3,3,4,4,5,5,6,6],"right_children":[2,4,6,8,10,12,14,-1,-1,-1,-1,-1,-1,-1,-1],"split_conditions":[-5.6082815E-1,-1.1990942E0,3.9657095E-1,-1.7309827E0,6.141875E-1,1.4561045E0,1.034837E0,-1.191752E1,-9.555552E0,-5.725585E0,-2.0198858E0,-7.271968E-1,4.5331116E0,3.7997787E0,8.075927E0],"split_indices":[0,0,0,0,2,2,0,0,0,0,0,0,0,0,0],"split_type":[0,0,0,0,0,0,0,0,0,0,0,0,0,0,0],"sum_hessian":[2.567E3,6.06E2,1.961E3,4.13E2,1.93E2,8.95E2,1.066E3,2.55E2,1.58E2,1.71E2,2.2E1,7.88E2,1.07E2,7.05E2,3.61E2],"tree_param":{"num_deleted":"0","num_feature":"81","num_nodes":"15","size_leaf_vector":"1"}},{"base_weights":[-3.8316643E-3,-6.79834E1,3.1486706E1,-9.701857E1,-3.19591E1,1.8461813E1,6.74183E1,-1.0489133E1,-7.939655E0,-4.143697E0,-5.150229E-1,3.9703402E-1,3.6197145E0,5.965589E0,1.1166571E1],"categories":[],"categories_nodes":[],"categories_segments":[],"categories_sizes":[],"default_left":[0,0,0,0,0,0,0,0,0,0,0,0,0,0,0],"id":6,"left_children":[1,3,5,7,9,11,13,-1,-1,-1,-1,-1,-1,-1,-1],"loss_changes":[5.538025E6,8.5355025E5,8.2618825E5,5.45185E4,9.303794E4,3.3371366E5,1.5476775E5,0E0,0E0,0E0,0E0,0E0,0E0,0E0,0E0],"parents":[2147483647,0,0,1,1,2,2,3,3,4,4,5,5,6,6],"right_children":[2,4,6,8,10,12,14,-1,-1,-1,-1,-1,-1,-1,-1],"split_conditions":[-2.4169512E-1,-9.8633885E-1,9.2845935E-1,-1.624605E0,6.141875E-1,6.141875E-1,1.6731031E0,-1.0489133E1,-7.939655E0,-4.143697E0,-5.150229E-1,3.9703402E-1,3.6197145E0,5.965589E0,1.1166571E1],"split_indices":[0,0,0,0,2,2,0,0,0,0,0,0,0,0,0],"split_type":[0,0,0,0,0,0,0,0,0,0,0,0,0,0,0],"sum_hessian":[2.585E3,8.18E2,1.767E3,4.52E2,3.66E2,1.298E3,4.69E2,3.09E2,1.43E2,2.7E2,9.6E1,7.15E2,5.83E2,4.01E2,6.8E1],"tree_param":{"num_deleted":"0","num_feature":"81","num_nodes":"15","size_leaf_vector":"1"}},{"base_weights":[6.4244515E-1,-7.546496E1,2.1970383E1,-9.004357E1,-4.2355057E1,7.8329024E0,5.014939E1,-9.615357E0,-7.857162E0,-4.804167E0,-1.0987662E0,-6.501238E-1,2.533942E0,2.218934E0,6.098645E0],"categories":[],"categories_nodes":[],"categories_segments":[],"categories_sizes":[],"default_left":[0,0,0,0,0,0,0,0,0,0,0,0,0,0,0],"id":7,"left_children":[1,3,5,7,9,11,13,-1,-1,-1,-1,-1,-1,-1,-1],"loss_changes":[4.174941E6,2.6794425E5,7.999528E5,1.978175E4,3.050925E4,3.3617456E5,2.0196312E5,0E0,0E0,0E0,0E0,0E0,0E0,0E0,0E0],"parents":[2147483647,0,0,1,1,2,2,3,3,4,4,5,5,6,6],"right_children":[2,4,6,8,10,12,14,-1,-1,-1,-1,-1,-1,-1,-1],"split_conditions":[-5.2555096E-1,-1.1726811E0,6.9680595E-1,-1.8198112E0,7.414889E-1,2.4630027E-1,-2.8290665E-1,-9.615357E0,-7.857162E0,-4.804167E0,-1.0987662E0,-6.501238E-1,2.533942E0,2.218934E0,6.098645E0],"split_indices":[1,1,1,1,78,20,20,0,0,0,0,0,0,0,0],"split_type":[0,0,0,0,0,0,0,0,0,0,0,0,0,0,0],"sum_hessian":[2.57E3,5.62E2,2.008E3,3.89E2,1.73E2,1.338E3,6.7E2,2.49E2,1.4E2,1.46E2,2.7E1,7.36E2,6.02E2,1.88E2,4.82E2],"tree_param":{"num_deleted":"0","num_feature":"81","num_nodes":"15","size_leaf_vector":"1"}},{"base_weights":[-6.7160946E-1,-5.683374E1,2.5863066E1,-7.740592E1,-2.8140985E1,1.6066542E1,6.3287395E1,-8.463524E0,-5.9748955E0,-4.4854927E0,-1.7128416E0,2.8503466E-1,3.484372E0,5.275571E0,1.0199352E1],"categories":[],"categories_nodes":[],"categories_segments":[],"categories_sizes":[],"default_left":[0,0,0,0,0,0,0,0,0,0,0,0,0,0,0],"id":8,"left_children":[1,3,5,7,9,11,13,-1,-1,-1,-1,-1,-1,-1,-1],"loss_changes":[3.864182E6,4.889285E5,6.446156E5,5.67245E4,6.3469844E4,3.4658416E5,1.4340825E5,0E0,0E0,0E0,0E0,0E0,0E0,0E0,0E0],"parents":[2147483647,0,0,1,1,2,2,3,3,4,4,5,5,6,6],"right_children":[2,4,6,8,10,12,14,-1,-1,-1,-1,-1,-1,-1,-1],"split_conditions":[-2.4169512E-1,-8.799612E-1,1.4561045E0,-1.5182272E0,-2.277295E-1,6.093263E-1,1.2475923E0,-8.463524E0,-5.9748955E0,-4.4854927E0,-1.7128416E0,2.8503466E-1,3.484372E0,5.275571E0,1.0199352E1],"split_indices":[0,0,2,0,2,0,0,0,0,0,0,0,0,0,0],"split_type":[0,0,0,0,0,0,0,0,0,0,0,0,0,0,0],"sum_hessian":[2.591E3,8.31E2,1.76E3,4.83E2,3.48E2,1.396E3,3.64E2,3.4E2,1.43E2,1.37E2,2.11E2,8.2E2,5.76E2,2.88E2,7.6E1],"tree_param":{"num_deleted":"0","num_feature":"81","num_nodes":"15","size_leaf_vector":"1"}},{"base_weights":[2.5310373E-1,-5.5970016E1,2.2279774E1,-7.149457E1,-3.0511707E1,3.3666775E-1,3.8519836E1,-7.434135E0,-4.288679E0,-4.195865E0,-2.1305006E0,-1.0058602E0,1.5538698E0,1.821661E0,5.285296E0],"categories":[],"categories_nodes":[],"categories_segments":[],"categories_sizes":[],"default_left":[0,0,0,0,0,0,0,0,0,0,0,0,0,0,0],"id":9,"left_children":[1,3,5,7,9,11,13,-1,-1,-1,-1,-1,-1,-1,-1],"loss_changes":[3.1851942E6,2.8396425E5,6.585355E5,3.33785E4,2.8193328E4,1.2452529E5,3.0808838E5,0E0,0E0,0E0,0E0,0E0,0E0,0E0,0E0],"parents":[2147483647,0,0,1,1,2,2,3,3,4,4,5,5,6,6],"right_children":[2,4,6,8,10,12,14,-1,-1,-1,-1,-1,-1,-1,-1],"split_conditions":[-3.480728E-1,-9.8633885E-1,3.9657095E-1,-2.277295E-1,-2.277295E-1,6.141875E-1,6.141875E-1,-7.434135E0,-4.288679E0,-4.195865E0,-2.1305006E0,-1.0058602E0,1.5538698E0,1.821661E0,5.285296E0],"split_indices":[0,0,0,2,2,2,2,0,0,0,0,0,0,0,0],"split_type":[0,0,0,0,0,0,0,0,0,0,0,0,0,0,0],"sum_hessian":[2.57E3,7.23E2,1.847E3,4.48E2,2.75E2,7.86E2,1.061E3,4.06E2,4.2E1,1.21E2,1.54E2,4.67E2,3.19E2,4.4E2,6.21E2],"tree_param":{"num_deleted":"0","num_feature":"81","num_nodes":"15","size_leaf_vector":"1"}},{"base_weights":[4.1095805E-1,-4.0400673E1,1.9595476E1,-6.1584038E1,-1.6353848E1,1.0849501E1,4.807905E1,-6.720882E0,-4.647854E0,-3.3805447E0,-6.4265054E-1,-1.3000473E0,1.5178157E0,3.3172882E0,6.0418572E0],"categories":[],"categories_nodes":[],"categories_segments":[],"categories_sizes":[],"default_left":[0,0,0,0,0,0,0,0,0,0,0,0,0,0,0],"id":10,"left_children":[1,3,5,7,9,11,13,-1,-1,-1,-1,-1,-1,-1,-1],"loss_changes":[2.0004498E6,4.1516662E5,4.32443E5,3.3751E4,6.630998E4,1.3760753E5,7.304125E4,0E0,0E0,0E0,0E0,0E0,0E0,0E0,0E0],"parents":[2147483647,0,0,1,1,2,2,3,3,4,4,5,5,6,6],"right_children":[2,4,6,8,10,12,14,-1,-1,-1,-1,-1,-1,-1,-1],"split_conditions":[-2.277295E-1,-2.836808E-1,1.4561045E0,-1.0274874E0,-5.5475354E-1,-3.383858E-1,-5.095184E-3,-6.720882E0,-4.647854E0,-3.3805447E0,-6.4265054E-1,-1.3000473E0,1.5178157E0,3.3172882E0,6.0418572E0],"split_indices":[2,7,2,7,20,16,68,0,0,0,0,0,0,0,0],"split_type":[0,0,0,0,0,0,0,0,0,0,0,0,0,0,0],"sum_hessian":[2.553E3,8.16E2,1.737E3,4.33E2,3.83E2,1.33E3,4.07E2,3.13E2,1.2E2,1.38E2,2.45E2,2.04E2,1.126E3,1.86E2,2.21E2],"tree_param":{"num_deleted":"0","num_feature":"81","num_nodes":"15","size_leaf_vector":"1"}},{"base_weights":[-8.983405E-1,-3.692821E1,1.674601E1,-5.362567E1,-1.541769E1,8.533266E0,4.339556E1,-5.890172E0,-3.8348122E0,-1.6951716E0,6.5458407E0,-1.5052962E-2,2.3222318E0,3.4646847E0,6.504017E0],"categories":[],"categories_nodes":[],"categories_segments":[],"categories_sizes":[],"default_left":[0,0,0,0,0,0,0,0,0,0,0,0,0,0,0],"id":11,"left_children":[1,3,5,7,9,11,13,-1,-1,-1,-1,-1,-1,-1,-1],"loss_changes":[1.608999E6,2.980035E5,3.714829E5,3.5464375E4,4.6393703E4,1.6582722E5,7.349156E4,0E0,0E0,0E0,0E0,0E0,0E0,0E0,0E0],"parents":[2147483647,0,0,1,1,2,2,3,3,4,4,5,5,6,6],"right_children":[2,4,6,8,10,12,14,-1,-1,-1,-1,-1,-1,-1,-1],"split_conditions":[-2.277295E-1,-3.103038E-1,1.4561045E0,-6.829875E-1,3.2010972E0,5.7686424E-1,2.2980216E0,-5.890172E0,-3.8348122E0,-1.6951716E0,6.5458407E0,-1.5052962E-2,2.3222318E0,3.4646847E0,6.504017E0],"split_indices":[2,19,2,7,54,19,2,0,0,0,0,0,0,0,0],"split_type":[0,0,0,0,0,0,0,0,0,0,0,0,0,0,0],"sum_hessian":[2.529E3,8.31E2,1.698E3,4.67E2,3.64E2,1.299E3,3.99E2,3.45E2,1.22E2,3.58E2,6E0,8.17E2,4.82E2,2.86E2,1.13E2],"tree_param":{"num_deleted":"0","num_feature":"81","num_nodes":"15","size_leaf_vector":"1"}},{"base_weights":[2.307083E-1,-3.336161E1,2.1877985E1,-5.3162006E1,-1.8130793E1,1.7516867E1,6.592476E1,-5.975985E0,-4.4385924E0,-2.285882E0,-2.496001E-2,3.697183E-2,2.4897373E0,4.1191936E0,8.343149E0],"categories":[],"categories_nodes":[],"categories_segments":[],"categories_sizes":[],"default_left":[0,0,0,0,0,0,0,0,0,0,0,0,0,0,0],"id":12,"left_children":[1,3,5,7,9,11,13,-1,-1,-1,-1,-1,-1,-1,-1],"loss_changes":[1.8630434E6,3.0181862E5,2.9812644E5,2.2593375E4,4.8099125E4,1.7957178E5,5.7182062E4,0E0,0E0,0E0,0E0,0E0,0E0,0E0,0E0],"parents":[2147483647,0,0,1,1,2,2,3,3,4,4,5,5,6,6],"right_children":[2,4,6,8,10,12,14,-1,-1,-1,-1,-1,-1,-1,-1],"split_conditions":[-2.8939767E-2,-9.8633885E-1,1.4603478E0,-1.7309827E0,6.53978E-1,-5.338715E-1,2.1213734E-1,-5.975985E0,-4.4385924E0,-2.285882E0,-2.496001E-2,3.697183E-2,2.4897373E0,4.1191936E0,8.343149E0],"split_indices":[0,0,0,0,20,78,64,0,0,0,0,0,0,0,0],"split_type":[0,0,0,0,0,0,0,0,0,0,0,0,0,0,0],"sum_hessian":[2.56E3,1.003E3,1.557E3,4.35E2,5.68E2,1.418E3,1.39E2,2.45E2,1.9E2,4.49E2,1.19E2,4.27E2,9.91E2,5.9E1,8E1],"tree_param":{"num_deleted":"0","num_feature":"81","num_nodes":"15","size_leaf_vector":"1"}},{"base_weights":[1.883891E-1,-2.890214E1,1.4725053E1,-4.6458412E1,-1.131942E1,-4.9856403E-1,2.5476091E1,3.353234E0,-4.6724277E0,-1.7486947E0,2.6899922E-1,-1.2785248E0,8.4194386E-1,9.706251E-1,3.4124792E0],"categories":[],"categories_nodes":[],"categories_segments":[],"categories_sizes":[],"default_left":[0,0,0,0,0,0,0,0,0,0,0,0,0,0,0],"id":13,"left_children":[1,3,5,7,9,11,13,-1,-1,-1,-1,-1,-1,-1,-1],"loss_changes":[1.0863795E6,2.637102E5,2.8037894E5,1.06688125E4,3.7114105E4,7.7904234E4,1.3660288E5,0E0,0E0,0E0,0E0,0E0,0E0,0E0,0E0],"parents":[2147483647,0,0,1,1,2,2,3,3,4,4,5,5,6,6],"right_children":[2,4,6,8,10,12,14,-1,-1,-1,-1,-1,-1,-1,-1],"split_conditions":[-2.277295E-1,-4.525937E-1,6.141875E-1,-4.2558885E0,4.5253122E-1,-3.673807E-1,3.7050596E-1,3.353234E0,-4.6724277E0,-1.7486947E0,2.6899922E-1,-1.2785248E0,8.4194386E-1,9.706251E-1,3.4124792E0],"split_indices":[2,13,2,55,19,78,19,0,0,0,0,0,0,0,0],"split_type":[0,0,0,0,0,0,0,0,0,0,0,0,0,0,0],"sum_hessian":[2.567E3,8.55E2,1.712E3,4.27E2,4.28E2,7.09E2,1.003E3,1E0,4.26E2,2.97E2,1.31E2,2.98E2,4.11E2,3.56E2,6.47E2],"tree_param":{"num_deleted":"0","num_feature":"81","num_nodes":"15","size_leaf_vector":"1"}},{"base_weights":[-6.024741E-1,-2.8602503E1,1.7207998E1,-4.525226E1,-1.6072382E1,9.158951E0,3.6474525E1,-5.1674757E0,-4.0777855E0,-1.9010442E0,3.611467E-1,4.9191974E-2,1.6991196E0,3.1473987E0,7.2166405E0],"categories":[],"categories_nodes":[],"categories_segments":[],"categories_sizes":[],"default_left":[0,0,0,0,0,0,0,0,0,0,0,0,0,0,0],"id":14,"left_children":[1,3,5,7,9,11,13,-1,-1,-1,-1,-1,-1,-1,-1],"loss_changes":[1.2801402E6,2.0747888E5,2.4298203E5,1.0192125E4,3.3090938E4,7.520524E4,8.018581E4,0E0,0E0,0E0,0E0,0E0,0E0,0E0,0E0],"parents":[2147483647,0,0,1,1,2,2,3,3,4,4,5,5,6,6],"right_children":[2,4,6,8,10,12,14,-1,-1,-1,-1,-1,-1,-1,-1],"split_conditions":[-2.8939767E-2,-9.8633885E-1,9.2845935E-1,-1.8373603E0,1.1571221E0,-1.0621677E-1,2.2980216E0,-5.1674757E0,-4.0777855E0,-1.9010442E0,3.611467E-1,4.9191974E-2,1.6991196E0,3.1473987E0,7.2166405E0],"split_indices":[0,0,0,0,79,79,2,0,0,0,0,0,0,0,0],"split_type":[0,0,0,0,0,0,0,0,0,0,0,0,0,0,0],"sum_hessian":[2.565E3,9.97E2,1.568E3,4.27E2,5.7E2,1.107E3,4.61E2,1.71E2,2.56E2,4.96E2,7.4E1,5.26E2,5.81E2,4.06E2,5.5E1],"tree_param":{"num_deleted":"0","num_feature":"81","num_nodes":"15","size_leaf_vector":"1"}},{"base_weights":[3.0026552E-1,-3.0358381E1,1.4052542E1,-4.196443E1,-1.9272743E1,8.420719E0,4.1678497E1,-4.6641955E0,-3.76265E0,-2.377357E0,-3.00565E-1,-8.494799E-3,1.6043215E0,2.2329345E0,5.8142715E0],"categories":[],"categories_nodes":[],"categories_segments":[],"categories_sizes":[],"default_left":[0,0,0,0,0,0,0,0,0,0,0,0,0,0,0],"id":15,"left_children":[1,3,5,7,9,11,13,-1,-1,-1,-1,-1,-1,-1,-1],"loss_changes":[1.0865356E6,1.0186231E5,2.7643384E5,6.138125E3,2.9946828E4,9.589146E4,9.459091E4,0E0,0E0,0E0,0E0,0E0,0E0,0E0,0E0],"parents":[2147483647,0,0,1,1,2,2,3,3,4,4,5,5,6,6],"right_children":[2,4,6,8,10,12,14,-1,-1,-1,-1,-1,-1,-1,-1],"split_conditions":[-2.4169512E-1,-1.1726811E0,1.1412147E0,-1.8373603E0,6.141875E-1,3.9657095E-1,8.182718E-2,-4.6641955E0,-3.76265E0,-2.377357E0,-3.00565E-1,-8.494799E-3,1.6043215E0,2.2329345E0,5.8142715E0],"split_indices":[0,1,0,0,2,0,68,0,0,0,0,0,0,0,0],"split_type":[0,0,0,0,0,0,0,0,0,0,0,0,0,0,0],"sum_hessian":[2.575E3,7.97E2,1.778E3,3.88E2,4.09E2,1.478E3,3E2,1.82E2,2.06E2,3.2E2,8.9E1,6.99E2,7.79E2,1.39E2,1.61E2],"tree_param":{"num_deleted":"0","num_feature":"81","num_nodes":"15","size_leaf_vector":"1"}},{"base_weights":[-1.0180803E-2,-2.2063803E1,1.6395933E1,-3.6311012E1,-1.1195214E1,9.787859E0,3.5364197E1,-4.2027836E0,-3.2366173E0,-1.6507467E0,3.9954603E-1,-8.020976E-2,1.7469746E0,1.661465E0,4.5428004E0],"categories":[],"categories_nodes":[],"categories_segments":[],"categories_sizes":[],"default_left":[0,0,0,0,0,0,0,0,0,0,0,0,0,0,0],"id":16,"left_children":[1,3,5,7,9,11,13,-1,-1,-1,-1,-1,-1,-1,-1],"loss_changes":[9.338425E5,1.7008012E5,1.8516247E5,9.3744375E3,5.0582086E4,8.9418586E4,7.132556E4,0E0,0E0,0E0,0E0,0E0,0E0,0E0,0E0],"parents":[2147483647,0,0,1,1,2,2,3,3,4,4,5,5,6,6],"right_children":[2,4,6,8,10,12,14,-1,-1,-1,-1,-1,-1,-1,-1],"split_conditions":[7.743791E-2,-8.799612E-1,1.034837E0,-1.8373603E0,6.376566E-1,-2.1916537E-1,1.1781832E-1,-4.2027836E0,-3.2366173E0,-1.6507467E0,3.9954603E-1,-8.020976E-2,1.7469746E0,1.661465E0,4.5428004E0],"split_indices":[0,0,0,0,78,78,25,0,0,0,0,0,0,0,0],"split_type":[0,0,0,0,0,0,0,0,0,0,0,0,0,0,0],"sum_hessian":[2.579E3,1.1E3,1.479E3,4.75E2,6.25E2,1.098E3,3.81E2,1.9E2,2.85E2,4.63E2,1.62E2,4.62E2,6.36E2,1.34E2,2.47E2],"tree_param":{"num_deleted":"0","num_feature":"81","num_nodes":"15","size_leaf_vector":"1"}},{"base_weights":[3.85594E-1,-2.9291124E1,8.996337E0,-3.1224033E1,-6.6360216E0,3.8294654E-2,2.1279749E1,-3.4822636E0,-2.415324E0,-1.7707337E0,1.1569765E0,-2.2909489E0,3.9377242E-1,4.6227726E-1,3.055629E0],"categories":[],"categories_nodes":[],"categories_segments":[],"categories_sizes":[],"default_left":[0,0,0,0,0,0,0,0,0,0,0,0,0,0,0],"id":17,"left_children":[1,3,5,7,9,11,13,-1,-1,-1,-1,-1,-1,-1,-1],"loss_changes":[6.465206E5,2.4709438E4,2.1577844E5,1.2492125E4,9.476721E3,1.0165372E5,1.2764606E5,0E0,0E0,0E0,0E0,0E0,0E0,0E0,0E0],"parents":[2147483647,0,0,1,1,2,2,3,3,4,4,5,5,6,6],"right_children":[2,4,6,8,10,12,14,-1,-1,-1,-1,-1,-1,-1,-1],"split_conditions":[-5.2555096E-1,6.53978E-1,5.5299926E-1,-1.3883911E0,9.723583E-2,-9.7253406E-1,-3.2991442E-1,-3.4822636E0,-2.415324E0,-1.7707337E0,1.1569765E0,-2.2909489E0,3.9377242E-1,4.6227726E-1,3.055629E0],"split_indices":[1,20,1,1,40,20,79,0,0,0,0,0,0,0,0],"split_type":[0,0,0,0,0,0,0,0,0,0,0,0,0,0,0],"sum_hessian":[2.528E3,5.68E2,1.96E3,5.23E2,4.5E1,1.134E3,8.26E2,3.44E2,1.79E2,2.8E1,1.7E1,1.64E2,9.7E2,2.96E2,5.3E2],"tree_param":{"num_deleted":"0","num_feature":"81","num_nodes":"15","size_leaf_vector":"1"}},{"base_weights":[-5.344118E-1,-1.638332E1,1.45839815E1,-2.8694374E1,-7.5232644E0,1.0673845E1,3.9354145E1,-3.1769795E0,-2.1843495E0,-1.2923676E0,3.065798E-1,-3.7729737E-1,1.5488217E0,1.3503896E0,5.089726E0],"categories":[],"categories_nodes":[],"categories_segments":[],"categories_sizes":[],"default_left":[0,0,0,0,0,0,0,0,0,0,0,0,0,0,0],"id":18,"left_children":[1,3,5,7,9,11,13,-1,-1,-1,-1,-1,-1,-1,-1],"loss_changes":[6.09088E5,1.3514819E5,1.2558794E5,1.02410625E4,4.1384586E4,7.830483E4,5.2128094E4,0E0,0E0,0E0,0E0,0E0,0E0,0E0,0E0],"parents":[2147483647,0,0,1,1,2,2,3,3,4,4,5,5,6,6],"right_children":[2,4,6,8,10,12,14,-1,-1,-1,-1,-1,-1,-1,-1],"split_conditions":[1.8381558E-1,-6.6935766E-1,1.35397E0,-1.4118496E0,4.4466302E-1,-7.7838486E-1,-5.573474E-1,-3.1769795E0,-2.1843495E0,-1.2923676E0,3.065798E-1,-3.7729737E-1,1.5488217E0,1.3503896E0,5.089726E0],"split_indices":[0,1,0,0,78,78,78,0,0,0,0,0,0,0,0],"split_type":[0,0,0,0,0,0,0,0,0,0,0,0,0,0,0],"sum_hessian":[2.54E3,1.24E3,1.3E3,5.18E2,7.22E2,1.124E3,1.76E2,3.55E2,1.63E2,4.78E2,2.44E2,2.81E2,8.43E2,5.5E1,1.21E2],"tree_param":{"num_deleted":"0","num_feature":"81","num_nodes":"15","size_leaf_vector":"1"}},{"base_weights":[3.7074637E-2,-1.8040539E1,1.1274487E1,-2.474726E1,-8.267818E0,5.8896356E0,3.0074404E1,-3.1313922E0,-2.1687672E0,-1.0997523E0,1.3215474E0,-3.070011E-1,1.1743224E0,4.3124086E-1,3.6984215E0],"categories":[],"categories_nodes":[],"categories_segments":[],"categories_sizes":[],"default_left":[0,0,0,0,0,0,0,0,0,0,0,0,0,0,0],"id":19,"left_children":[1,3,5,7,9,11,13,-1,-1,-1,-1,-1,-1,-1,-1],"loss_changes":[5.2411584E5,6.4617312E4,1.6088734E5,1.1094406E4,2.3837121E4,6.49643E4,6.285625E4,0E0,0E0,0E0,0E0,0E0,0E0,0E0,0E0],"parents":[2147483647,0,0,1,1,2,2,3,3,4,4,5,5,6,6],"right_children":[2,4,6,8,10,12,14,-1,-1,-1,-1,-1,-1,-1,-1],"split_conditions":[-2.8939767E-2,-2.277295E-1,1.4561045E0,-1.8373603E0,1.4561045E0,-3.6854252E-1,-6.1345965E-1,-3.1313922E0,-2.1687672E0,-1.0997523E0,1.3215474E0,-3.070011E-1,1.1743224E0,4.3124086E-1,3.6984215E0],"split_indices":[0,2,2,0,2,78,67,0,0,0,0,0,0,0,0],"split_type":[0,0,0,0,0,0,0,0,0,0,0,0,0,0,0],"sum_hessian":[2.578E3,9.88E2,1.59E3,5.85E2,4.03E2,1.237E3,3.53E2,1.83E2,4.02E2,3.58E2,4.5E1,4.89E2,7.48E2,7.5E1,2.78E2],"tree_param":{"num_deleted":"0","num_feature":"81","num_nodes":"15","size_leaf_vector":"1"}},{"base_weights":[2.3291666E-2,-1.5581123E1,1.0244421E1,-2.3942595E1,-7.303865E0,1.1170033E0,1.9034084E1,-2.8028908E0,-2.1518145E0,-2.1217344E0,-3.5131356E-1,-1.0073773E0,5.4726124E-1,1.4373311E0,4.104233E0],"categories":[],"categories_nodes":[],"categories_segments":[],"categories_sizes":[],"default_left":[0,0,0,0,0,0,0,0,0,0,0,0,0,0,0],"id":20,"left_children":[1,3,5,7,9,11,13,-1,-1,-1,-1,-1,-1,-1,-1],"loss_changes":[4.078282E5,6.98657E4,1.2392934E5,4.3801562E3,2.6824004E4,3.7050797E4,8.013697E4,0E0,0E0,0E0,0E0,0E0,0E0,0E0,0E0],"parents":[2147483647,0,0,1,1,2,2,3,3,4,4,5,5,6,6],"right_children":[2,4,6,8,10,12,14,-1,-1,-1,-1,-1,-1,-1,-1],"split_conditions":[-2.8939767E-2,-7.7358353E-1,2.4677211E-1,-1.8373603E0,-9.20443E-1,-7.148408E-1,1.2475923E0,-2.8028908E0,-2.1518145E0,-2.1217344E0,-3.5131356E-1,-1.0073773E0,5.4726124E-1,1.4373311E0,4.104233E0],"split_indices":[0,0,20,0,25,78,0,0,0,0,0,0,0,0,0],"split_type":[0,0,0,0,0,0,0,0,0,0,0,0,0,0,0],"sum_hessian":[2.555E3,1.011E3,1.544E3,5.02E2,5.09E2,7.58E2,7.86E2,1.83E2,3.19E2,1.08E2,4.01E2,2.12E2,5.46E2,6.5E2,1.36E2],"tree_param":{"num_deleted":"0","num_feature":"81","num_nodes":"15","size_leaf_vector":"1"}},{"base_weights":[-1.5369813E-1,-1.1408675E1,1.2887463E1,-1.55551E1,2.5446515E0,1.0313082E1,4.9489674E1,-2.3472688E0,-1.1690559E0,-6.333354E-2,2.5894434E0,5.6551224E-1,2.2818408E0,-7.602462E-1,6.209737E0],"categories":[],"categories_nodes":[],"categories_segments":[],"categories_sizes":[],"default_left":[0,0,0,0,0,0,0,0,0,0,0,0,0,0,0],"id":21,"left_children":[1,3,5,7,9,11,13,-1,-1,-1,-1,-1,-1,-1,-1],"loss_changes":[3.773664E5,7.988144E4,1.1171516E5,3.2281703E4,2.3539482E4,6.476068E4,5.6616516E4,0E0,0E0,0E0,0E0,0E0,0E0,0E0,0E0],"parents":[2147483647,0,0,1,1,2,2,3,3,4,4,5,5,6,6],"right_children":[2,4,6,8,10,12,14,-1,-1,-1,-1,-1,-1,-1,-1],"split_conditions":[2.9019326E-1,6.141875E-1,1.6731031E0,-1.4118496E0,1.3279163E0,6.007305E-1,-6.1810845E-1,-2.3472688E0,-1.1690559E0,-6.333354E-2,2.5894434E0,5.6551224E-1,2.2818408E0,-7.602462E-1,6.209737E0],"split_indices":[0,2,0,0,18,35,68,0,0,0,0,0,0,0,0],"split_type":[0,0,0,0,0,0,0,0,0,0,0,0,0,0,0],"sum_hessian":[2.569E3,1.379E3,1.19E3,1.063E3,3.16E2,1.113E3,7.7E1,3.47E2,7.16E2,2.79E2,3.7E1,8.12E2,3.01E2,1.4E1,6.3E1],"tree_param":{"num_deleted":"0","num_feature":"81","num_nodes":"15","size_leaf_vector":"1"}},{"base_weights":[-5.619967E-1,-9.259029E0,1.2264985E1,-1.903935E1,-4.2529535E0,9.493482E0,4.4258095E1,-1.9450394E0,1.9072573E0,-8.6311644E-1,5.1871717E-1,-5.210549E-1,1.457551E0,-2.9114778E0,5.043378E0],"categories":[],"categories_nodes":[],"categories_segments":[],"categories_sizes":[],"default_left":[0,0,0,0,0,0,0,0,0,0,0,0,0,0,0],"id":22,"left_children":[1,3,5,7,9,11,13,-1,-1,-1,-1,-1,-1,-1,-1],"loss_changes":[2.8491778E5,7.44377E4,9.108625E4,8.438781E3,4.170627E4,7.114066E4,3.8624844E4,0E0,0E0,0E0,0E0,0E0,0E0,0E0,0E0],"parents":[2147483647,0,0,1,1,2,2,3,3,4,4,5,5,6,6],"right_children":[2,4,6,8,10,12,14,-1,-1,-1,-1,-1,-1,-1,-1],"split_conditions":[3.9657095E-1,-7.7358353E-1,2.2980216E0,-3.8174427E-1,3.8284907E-1,-2.834537E-1,-1.3390368E0,-1.9450394E0,1.9072573E0,-8.6311644E-1,5.1871717E-1,-5.210549E-1,1.457551E0,-2.9114778E0,5.043378E0],"split_indices":[0,0,2,1,79,20,76,0,0,0,0,0,0,0,0],"split_type":[0,0,0,0,0,0,0,0,0,0,0,0,0,0,0],"sum_hessian":[2.552E3,1.521E3,1.031E3,5.14E2,1.007E3,9.5E2,8.1E1,5.09E2,5E0,6.88E2,3.19E2,2.44E2,7.06E2,6E0,7.5E1],"tree_param":{"num_deleted":"0","num_feature":"81","num_nodes":"15","size_leaf_vector":"1"}},{"base_weights":[5.169981E-1,-7.610187E0,1.3123407E1,-1.4895607E1,-3.8998353E-1,9.075425E0,3.662827E1,-1.9234459E0,-1.1089286E0,-8.318042E-1,6.9126236E-1,5.175271E-1,2.088075E0,1.5749344E0,4.519181E0],"categories":[],"categories_nodes":[],"categories_segments":[],"categories_sizes":[],"default_left":[0,0,0,0,0,0,0,0,0,0,0,0,0,0,0],"id":23,"left_children":[1,3,5,7,9,11,13,-1,-1,-1,-1,-1,-1,-1,-1],"loss_changes":[2.6033462E5,8.126462E4,9.443425E4,1.2486781E4,4.5042297E4,3.907418E4,2.5392688E4,0E0,0E0,0E0,0E0,0E0,0E0,0E0,0E0],"parents":[2147483647,0,0,1,1,2,2,3,3,4,4,5,5,6,6],"right_children":[2,4,6,8,10,12,14,-1,-1,-1,-1,-1,-1,-1,-1],"split_conditions":[6.141875E-1,-1.3531744E-1,1.2475923E0,-1.4118496E0,-1.0268866E-1,6.902809E-1,-6.028122E-1,-1.9234459E0,-1.1089286E0,-8.318042E-1,6.9126236E-1,5.175271E-1,2.088075E0,1.5749344E0,4.519181E0],"split_indices":[2,0,0,0,78,78,78,0,0,0,0,0,0,0,0],"split_type":[0,0,0,0,0,0,0,0,0,0,0,0,0,0,0],"sum_hessian":[2.539E3,1.544E3,9.95E2,7.68E2,7.76E2,8.5E2,1.45E2,3.57E2,4.11E2,3.72E2,4.04E2,6.4E2,2.1E2,4.3E1,1.02E2],"tree_param":{"num_deleted":"0","num_feature":"81","num_nodes":"15","size_leaf_vector":"1"}},{"base_weights":[-3.613647E-1,-9.511665E0,8.201509E0,-1.2046399E1,2.1860461E0,7.405658E0,7.795497E1,-1.6771431E0,-8.508226E-1,-8.084337E-1,1.309594E0,2.5672603E-2,1.4352081E0,9.369124E0,2.7744184E0],"categories":[],"categories_nodes":[],"categories_segments":[],"categories_sizes":[],"default_left":[0,0,0,0,0,0,0,0,0,0,0,0,0,0,0],"id":24,"left_children":[1,3,5,7,9,11,13,-1,-1,-1,-1,-1,-1,-1,-1],"loss_changes":[2.0309031E5,3.7178523E4,7.375514E4,1.7076812E4,2.5204803E4,6.5795164E4,9.2525625E3,0E0,0E0,0E0,0E0,0E0,0E0,0E0,0E0],"parents":[2147483647,0,0,1,1,2,2,3,3,4,4,5,5,6,6],"right_children":[2,4,6,8,10,12,14,-1,-1,-1,-1,-1,-1,-1,-1],"split_conditions":[1.8381558E-1,5.84452E-1,2.2049913E0,-8.850677E-1,2.4185112E-1,8.153733E-2,9.642867E-3,-1.6771431E0,-8.508226E-1,-8.084337E-1,1.309594E0,2.5672603E-2,1.4352081E0,9.369124E0,2.7744184E0],"split_indices":[0,20,0,1,79,79,45,0,0,0,0,0,0,0,0],"split_type":[0,0,0,0,0,0,0,0,0,0,0,0,0,0,0],"sum_hessian":[2.59E3,1.252E3,1.338E3,1.029E3,2.23E2,1.324E3,1.4E1,4.39E2,5.9E2,1.15E2,1.08E2,6.53E2,6.71E2,1E1,4E0],"tree_param":{"num_deleted":"0","num_feature":"81","num_nodes":"15","size_leaf_vector":"1"}},{"base_weights":[4.2463222E-1,-6.4421124E0,1.10669775E1,-1.030321E1,3.5688188E0,8.160421E0,3.9727905E1,-1.2066282E0,1.1901764E-1,-7.945951E-1,8.3737916E-1,-2.8924271E-2,1.3481658E0,2.1479487E0,5.3977036E0],"categories":[],"categories_nodes":[],"categories_segments":[],"categories_sizes":[],"default_left":[0,0,0,0,0,0,0,0,0,0,0,0,0,0,0],"id":25,"left_children":[1,3,5,7,9,11,13,-1,-1,-1,-1,-1,-1,-1,-1],"loss_changes":[1.8671319E5,6.006516E4,8.3147E4,2.2729938E4,2.4023629E4,4.0964875E4,2.2762812E4,0E0,0E0,0E0,0E0,0E0,0E0,0E0,0E0],"parents":[2147483647,0,0,1,1,2,2,3,3,4,4,5,5,6,6],"right_children":[2,4,6,8,10,12,14,-1,-1,-1,-1,-1,-1,-1,-1],"split_conditions":[6.141875E-1,4.810959E-1,1.4603478E0,6.2771773E-1,-6.90681E-1,2.3755941E-1,2.1213734E-1,-1.2066282E0,1.1901764E-1,-7.945951E-1,8.3737916E-1,-2.8924271E-2,1.3481658E0,2.1479487E0,5.3977036E0],"split_indices":[2,1,0,16,78,25,64,0,0,0,0,0,0,0,0],"split_type":[0,0,0,0,0,0,0,0,0,0,0,0,0,0,0],"sum_hessian":[2.553E3,1.552E3,1.001E3,1.12E3,4.32E2,9.1E2,9.1E1,9.71E2,1.49E2,1.27E2,3.05E2,3.52E2,5.58E2,4.1E1,5E1],"tree_param":{"num_deleted":"0","num_feature":"81","num_nodes":"15","size_leaf_vector":"1"}},{"base_weights":[-3.079424E-1,-6.235697E0,9.027548E0,-1.6566711E1,-3.8480206E0,6.0000496E0,3.058671E1,-4.6477547E0,-1.5792936E0,-6.5172446E-1,9.1169375E-1,2.0389862E-1,1.6355164E0,-2.7548218E0,3.48335E0],"categories":[],"categories_nodes":[],"categories_segments":[],"categories_sizes":[],"default_left":[0,0,0,0,0,0,0,0,0,0,0,0,0,0,0],"id":26,"left_children":[1,3,5,7,9,11,13,-1,-1,-1,-1,-1,-1,-1,-1],"loss_changes":[1.4377038E5,3.913231E4,6.567425E4,6.1629766E3,4.477085E4,3.630794E4,3.1573562E4,0E0,0E0,0E0,0E0,0E0,0E0,0E0,0E0],"parents":[2147483647,0,0,1,1,2,2,3,3,4,4,5,5,6,6],"right_children":[2,4,6,8,10,12,14,-1,-1,-1,-1,-1,-1,-1,-1],"split_conditions":[6.141875E-1,-8.990092E-1,2.2980216E0,-1.9701511E0,6.367922E-1,8.4061265E-1,-1.3390368E0,-4.6477547E0,-1.5792936E0,-6.5172446E-1,9.1169375E-1,2.0389862E-1,1.6355164E0,-2.7548218E0,3.48335E0],"split_indices":[2,79,2,44,20,1,76,0,0,0,0,0,0,0,0],"split_type":[0,0,0,0,0,0,0,0,0,0,0,0,0,0,0],"sum_hessian":[2.596E3,1.588E3,1.008E3,2.97E2,1.291E3,8.85E2,1.23E2,6E0,2.91E2,1.071E3,2.2E2,6.41E2,2.44E2,8E0,1.15E2],"tree_param":{"num_deleted":"0","num_feature":"81","num_nodes":"15","size_leaf_vector":"1"}},{"base_weights":[9.333617E-2,-6.2428164E0,8.939952E0,-7.7648273E0,1.0463728E1,4.672519E0,2.0811113E1,-1.3230846E0,-4.6206284E-1,2.3955174E-1,3.9360797E0,2.0713685E-2,1.6734419E0,1.4527738E0,4.4100914E0],"categories":[],"categories_nodes":[],"categories_segments":[],"categories_sizes":[],"default_left":[0,0,0,0,0,0,0,0,0,0,0,0,0,0,0],"id":27,"left_children":[1,3,5,7,9,11,13,-1,-1,-1,-1,-1,-1,-1,-1],"loss_changes":[1.4237566E5,3.7714016E4,5.3601703E4,2.326061E4,2.8816023E4,4.2061973E4,4.033411E4,0E0,0E0,0E0,0E0,0E0,0E0,0E0,0E0],"parents":[2147483647,0,0,1,1,2,2,3,3,4,4,5,5,6,6],"right_children":[2,4,6,8,10,12,14,-1,-1,-1,-1,-1,-1,-1,-1],"split_conditions":[3.9657095E-1,1.4561045E0,8.0569035E-1,-7.7358353E-1,1.3066726E0,5.010036E-1,6.648109E-1,-1.3230846E0,-4.6206284E-1,2.3955174E-1,3.9360797E0,2.0713685E-2,1.6734419E0,1.4527738E0,4.4100914E0],"split_indices":[0,2,13,0,78,40,14,0,0,0,0,0,0,0,0],"split_type":[0,0,0,0,0,0,0,0,0,0,0,0,0,0,0],"sum_hessian":[2.538E3,1.479E3,1.059E3,1.356E3,1.23E2,7.8E2,2.79E2,4.94E2,8.62E2,9.7E1,2.6E1,5.7E2,2.1E2,2.21E2,5.8E1],"tree_param":{"num_deleted":"0","num_feature":"81","num_nodes":"15","size_leaf_vector":"1"}},{"base_weights":[-4.2412613E-2,-6.420753E0,5.845318E0,-7.244752E0,2.0744307E1,2.5938995E0,1.748652E1,-9.6828395E-1,-1.1145007E-1,-9.5382446E-1,4.182506E0,-7.959292E-2,1.2792081E0,1.0861424E0,3.8626313E0],"categories":[],"categories_nodes":[],"categories_segments":[],"categories_sizes":[],"default_left":[0,0,0,0,0,0,0,0,0,0,0,0,0,0,0],"id":28,"left_children":[1,3,5,7,9,11,13,-1,-1,-1,-1,-1,-1,-1,-1],"loss_changes":[9.764025E4,2.8085488E4,5.112841E4,1.8103871E4,2.4018957E4,3.6585336E4,4.089614E4,0E0,0E0,0E0,0E0,0E0,0E0,0E0,0E0],"parents":[2147483647,0,0,1,1,2,2,3,3,4,4,5,5,6,6],"right_children":[2,4,6,8,10,12,14,-1,-1,-1,-1,-1,-1,-1,-1],"split_conditions":[1.8381558E-1,2.6105912E0,8.620152E-1,4.2082033E-1,-5.6082815E-1,5.5575293E-1,1.0196977E0,-9.6828395E-1,-1.1145007E-1,-9.5382446E-1,4.182506E0,-7.959292E-2,1.2792081E0,1.0861424E0,3.8626313E0],"split_indices":[0,36,13,35,0,35,64,0,0,0,0,0,0,0,0],"split_type":[0,0,0,0,0,0,0,0,0,0,0,0,0,0,0],"sum_hessian":[2.598E3,1.247E3,1.351E3,1.211E3,3.6E1,1.057E3,2.94E2,8.66E2,3.45E2,1.5E1,2.1E1,7.94E2,2.63E2,2.25E2,6.9E1],"tree_param":{"num_deleted":"0","num_feature":"81","num_nodes":"15","size_leaf_vector":"1"}},{"base_weights":[-3.1357294E-1,-5.1200323E0,7.2542562E0,-7.4255137E0,2.3726E0,6.224074E0,5.2486683E1,-1.0301307E0,-3.167782E-1,-3.4775253E-2,3.0081275E0,2.5739822E-1,1.7178776E0,2.1767435E0,8.717303E0],"categories":[],"categories_nodes":[],"categories_segments":[],"categories_sizes":[],"default_left":[0,0,0,0,0,0,0,0,0,0,0,0,0,0,0],"id":29,"left_children":[1,3,5,7,9,11,13,-1,-1,-1,-1,-1,-1,-1,-1],"loss_changes":[9.3083016E4,2.7051621E4,4.5991387E4,1.4623867E4,2.7824709E4,3.8861836E4,2.1544324E4,0E0,0E0,0E0,0E0,0E0,0E0,0E0,0E0],"parents":[2147483647,0,0,1,1,2,2,3,3,4,4,5,5,6,6],"right_children":[2,4,6,8,10,12,14,-1,-1,-1,-1,-1,-1,-1,-1],"split_conditions":[6.141875E-1,5.5299926E-1,1.9922361E0,-2.277295E-1,1.190879E0,6.6997236E-1,9.956048E-1,-1.0301307E0,-3.167782E-1,-3.4775253E-2,3.0081275E0,2.5739822E-1,1.7178776E0,2.1767435E0,8.717303E0],"split_indices":[2,1,0,2,14,78,16,0,0,0,0,0,0,0,0],"split_type":[0,0,0,0,0,0,0,0,0,0,0,0,0,0,0],"sum_hessian":[2.557E3,1.564E3,9.93E2,1.196E3,3.68E2,9.72E2,2.1E1,7.13E2,4.83E2,3.36E2,3.2E1,7.3E2,2.42E2,1.2E1,9E0],"tree_param":{"num_deleted":"0","num_feature":"81","num_nodes":"15","size_leaf_vector":"1"}},{"base_weights":[5.918578E-1,-4.8855734E0,8.13036E0,-5.644968E0,1.302161E1,-3.7577107E0,1.2176066E1,-7.401129E-1,1.17786385E-1,3.1972063E-1,3.6313398E0,-9.0061104E-1,1.123784E0,9.7545636E-1,3.7600873E0],"categories":[],"categories_nodes":[],"categories_segments":[],"categories_sizes":[],"default_left":[0,0,0,0,0,0,0,0,0,0,0,0,0,0,0],"id":30,"left_children":[1,3,5,7,9,11,13,-1,-1,-1,-1,-1,-1,-1,-1],"loss_changes":[1.06365664E5,2.0362637E4,5.218143E4,1.7166926E4,1.38424E4,2.1823137E4,4.944033E4,0E0,0E0,0E0,0E0,0E0,0E0,0E0,0E0],"parents":[2147483647,0,0,1,1,2,2,3,3,4,4,5,5,6,6],"right_children":[2,4,6,8,10,12,14,-1,-1,-1,-1,-1,-1,-1,-1],"split_conditions":[3.9657095E-1,1.9255768E0,-7.7838486E-1,8.705958E-1,8.4726083E-1,7.404492E-1,1.5596461E0,-7.401129E-1,1.17786385E-1,3.1972063E-1,3.6313398E0,-9.0061104E-1,1.123784E0,9.7545636E-1,3.7600873E0],"split_indices":[0,44,78,35,20,13,1,0,0,0,0,0,0,0,0],"split_type":[0,0,0,0,0,0,0,0,0,0,0,0,0,0,0],"sum_hessian":[2.574E3,1.491E3,1.083E3,1.431E3,6E1,2.75E2,8.08E2,1.138E3,2.93E2,4.3E1,1.7E1,2.04E2,7.1E1,7.39E2,6.9E1],"tree_param":{"num_deleted":"0","num_feature":"81","num_nodes":"15","size_leaf_vector":"1"}},{"base_weights":[-8.2008645E-2,-2.4908707E0,1.2712707E1,-4.7757783E0,5.2699537E0,1.3771838E0,1.8627268E1,-6.229905E-1,3.4145707E-1,4.365348E-1,6.0018296E0,4.960806E-1,-2.2083147E0,7.8717333E-1,2.6556396E0],"categories":[],"categories_nodes":[],"categories_segments":[],"categories_sizes":[],"default_left":[0,0,0,0,0,0,0,0,0,0,0,0,0,0,0],"id":31,"left_children":[1,3,5,7,9,11,13,-1,-1,-1,-1,-1,-1,-1,-1],"loss_changes":[7.994976E4,3.8735797E4,2.7529695E4,2.011311E4,2.4352248E4,1.204791E4,2.2817102E4,0E0,0E0,0E0,0E0,0E0,0E0,0E0,0E0],"parents":[2147483647,0,0,1,1,2,2,3,3,4,4,5,5,6,6],"right_children":[2,4,6,8,10,12,14,-1,-1,-1,-1,-1,-1,-1,-1],"split_conditions":[1.4561045E0,6.9680595E-1,-2.1017066E-1,1.0130799E0,2.2067764E0,6.596255E-1,1.1668628E-1,-6.229905E-1,3.4145707E-1,4.365348E-1,6.0018296E0,4.960806E-1,-2.2083147E0,7.8717333E-1,2.6556396E0],"split_indices":[2,1,17,78,1,12,79,0,0,0,0,0,0,0,0],"split_type":[0,0,0,0,0,0,0,0,0,0,0,0,0,0,0],"sum_hessian":[2.592E3,2.182E3,4.1E2,1.686E3,4.96E2,1.41E2,2.69E2,1.432E3,2.54E2,4.89E2,7E0,1.23E2,1.8E1,1.15E2,1.54E2],"tree_param":{"num_deleted":"0","num_feature":"81","num_nodes":"15","size_leaf_vector":"1"}},{"base_weights":[1.1652236E-1,-3.5649576E0,7.5177407E0,-5.9513006E0,2.0222685E0,6.428754E0,5.3097088E1,-7.54789E-1,1.8675718E-1,-7.2925925E-1,7.231421E-1,3.4242305E-1,1.7978219E0,6.585422E0,-1.4394989E0],"categories":[],"categories_nodes":[],"categories_segments":[],"categories_sizes":[],"default_left":[0,0,0,0,0,0,0,0,0,0,0,0,0,0,0],"id":32,"left_children":[1,3,5,7,9,11,13,-1,-1,-1,-1,-1,-1,-1,-1],"loss_changes":[7.07884E4,2.3144857E4,4.249392E4,1.51940625E4,2.5284451E4,2.9225781E4,1.8168066E4,0E0,0E0,0E0,0E0,0E0,0E0,0E0,0E0],"parents":[2147483647,0,0,1,1,2,2,3,3,4,4,5,5,6,6],"right_children":[2,4,6,8,10,12,14,-1,-1,-1,-1,-1,-1,-1,-1],"split_conditions":[4.642393E-1,2.2938898E-1,1.9922361E0,8.6906505E-1,-2.4169512E-1,8.0238813E-1,8.951246E-1,-7.54789E-1,1.8675718E-1,-7.2925925E-1,7.231421E-1,3.4242305E-1,1.7978219E0,6.585422E0,-1.4394989E0],"split_indices":[20,45,0,21,0,64,61,0,0,0,0,0,0,0,0],"split_type":[0,0,0,0,0,0,0,0,0,0,0,0,0,0,0],"sum_hessian":[2.596E3,1.734E3,8.62E2,1.215E3,5.19E2,8.43E2,1.9E1,1.009E3,2.06E2,1.86E2,3.33E2,6.7E2,1.73E2,1.6E1,3E0],"tree_param":{"num_deleted":"0","num_feature":"81","num_nodes":"15","size_leaf_vector":"1"}},{"base_weights":[-1.4001022E-1,-4.138447E0,5.63437E0,-5.9563775E0,3.4452195E0,4.380184E0,3.554095E1,-6.4913726E-1,1.4108168E0,-3.2437754E-1,1.8568661E0,3.4176195E-1,3.787914E0,4.1295085E0,-2.9447048E0],"categories":[],"categories_nodes":[],"categories_segments":[],"categories_sizes":[],"default_left":[0,0,0,0,0,0,0,0,0,0,0,0,0,0,0],"id":33,"left_children":[1,3,5,7,9,11,13,-1,-1,-1,-1,-1,-1,-1,-1],"loss_changes":[5.908368E4,2.0865828E4,3.911562E4,1.318759E4,2.9700297E4,3.2308926E4,1.6921895E4,0E0,0E0,0E0,0E0,0E0,0E0,0E0,0E0],"parents":[2147483647,0,0,1,1,2,2,3,3,4,4,5,5,6,6],"right_children":[2,4,6,8,10,12,14,-1,-1,-1,-1,-1,-1,-1,-1],"split_conditions":[3.9657095E-1,7.712165E-1,1.3513443E0,3.1969507E0,4.0566206E-1,1.9922361E0,1.2818625E0,-6.4913726E-1,1.4108168E0,-3.2437754E-1,1.8568661E0,3.4176195E-1,3.787914E0,4.1295085E0,-2.9447048E0],"split_indices":[0,78,15,36,20,0,9,0,0,0,0,0,0,0,0],"split_type":[0,0,0,0,0,0,0,0,0,0,0,0,0,0,0],"sum_hessian":[2.557E3,1.511E3,1.046E3,1.219E3,2.92E2,1.005E3,4.1E1,1.188E3,3.1E1,2.03E2,8.9E1,9.78E2,2.7E1,3.8E1,3E0],"tree_param":{"num_deleted":"0","num_feature":"81","num_nodes":"15","size_leaf_vector":"1"}},{"base_weights":[2.9834846E-1,-8.4624714E-1,2.3478655E1,-6.300308E0,1.8516176E0,-1.288256E1,2.8696419E1,-9.182973E-1,6.5983766E-1,-1.5709995E-1,7.1272796E-1,-3.8562226E0,1.1375207E0,3.7549934E-1,3.5863156E0],"categories":[],"categories_nodes":[],"categories_segments":[],"categories_sizes":[],"default_left":[0,0,0,0,0,0,0,0,0,0,0,0,0,0,0],"id":34,"left_children":[1,3,5,7,9,11,13,-1,-1,-1,-1,-1,-1,-1,-1],"loss_changes":[6.879101E4,3.6370754E4,2.3516055E4,3.0475936E4,2.9876766E4,1.0405556E4,1.899143E4,0E0,0E0,0E0,0E0,0E0,0E0,0E0,0E0],"parents":[2147483647,0,0,1,1,2,2,3,3,4,4,5,5,6,6],"right_children":[2,4,6,8,10,12,14,-1,-1,-1,-1,-1,-1,-1,-1],"split_conditions":[2.2980216E0,-4.1696241E-1,-1.1108876E0,8.705958E-1,2.1609212E-1,4.0919256E-1,-6.2958527E-1,-9.182973E-1,6.5983766E-1,-1.5709995E-1,7.1272796E-1,-3.8562226E0,1.1375207E0,3.7549934E-1,3.5863156E0],"split_indices":[2,20,6,35,17,1,69,0,0,0,0,0,0,0,0],"split_type":[0,0,0,0,0,0,0,0,0,0,0,0,0,0,0],"sum_hessian":[2.591E3,2.47E3,1.21E2,8.17E2,1.653E3,1.5E1,1.06E2,6.68E2,1.49E2,1.003E3,6.5E2,7E0,8E0,2.4E1,8.2E1],"tree_param":{"num_deleted":"0","num_feature":"81","num_nodes":"15","size_leaf_vector":"1"}},{"base_weights":[7.691161E-2,-5.730579E0,2.8769073E0,-4.19253E0,-1.152484E1,-4.276763E0,5.6299744E0,-8.1875354E-1,-1.6435061E-1,-1.6935195E0,-1.6376226E-1,-9.0328264E-1,4.2978755E-1,3.4158942E-1,1.7281097E0],"categories":[],"categories_nodes":[],"categories_segments":[],"categories_sizes":[],"default_left":[0,0,0,0,0,0,0,0,0,0,0,0,0,0,0],"id":35,"left_children":[1,3,5,7,9,11,13,-1,-1,-1,-1,-1,-1,-1,-1],"loss_changes":[4.183965E4,7.41091E3,3.421379E4,6.7381133E3,9.333598E3,1.9736297E4,3.22898E4,0E0,0E0,0E0,0E0,0E0,0E0,0E0,0E0],"parents":[2147483647,0,0,1,1,2,2,3,3,4,4,5,5,6,6],"right_children":[2,4,6,8,10,12,14,-1,-1,-1,-1,-1,-1,-1,-1],"split_conditions":[-2.277295E-1,8.7464005E-1,-6.028122E-1,-1.8423757E-1,6.7574346E-1,5.7166857E-1,1.1412147E0,-8.1875354E-1,-1.6435061E-1,-1.6935195E0,-1.6376226E-1,-9.0328264E-1,4.2978755E-1,3.4158942E-1,1.7281097E0],"split_indices":[2,5,78,24,15,25,0,0,0,0,0,0,0,0,0],"split_type":[0,0,0,0,0,0,0,0,0,0,0,0,0,0,0],"sum_hessian":[2.571E3,8.36E2,1.735E3,6.62E2,1.74E2,4.82E2,1.253E3,2.57E2,4.05E2,1.12E2,6.2E1,3.1E2,1.72E2,1.054E3,1.99E2],"tree_param":{"num_deleted":"0","num_feature":"81","num_nodes":"15","size_leaf_vector":"1"}},{"base_weights":[-2.7599406E-1,-2.0072627E0,9.259658E0,-4.128553E0,3.3313055E0,-9.931296E0,1.2742193E1,-4.838615E-1,1.0156133E0,1.2936947E-2,1.4266585E0,-1.387752E0,1.8440408E0,6.5906906E-1,2.4986875E0],"categories":[],"categories_nodes":[],"categories_segments":[],"categories_sizes":[],"default_left":[0,0,0,0,0,0,0,0,0,0,0,0,0,0,0],"id":36,"left_children":[1,3,5,7,9,11,13,-1,-1,-1,-1,-1,-1,-1,-1],"loss_changes":[4.2974414E4,2.4961963E4,2.685982E4,1.6044668E4,2.195197E4,7.1974956E3,2.5369871E4,0E0,0E0,0E0,0E0,0E0,0E0,0E0,0E0],"parents":[2147483647,0,0,1,1,2,2,3,3,4,4,5,5,6,6],"right_children":[2,4,6,8,10,12,14,-1,-1,-1,-1,-1,-1,-1,-1],"split_conditions":[8.620152E-1,4.2082033E-1,-7.223875E-1,1.6791528E0,8.485613E-1,1.2462883E0,9.2845935E-1,-4.838615E-1,1.0156133E0,1.2936947E-2,1.4266585E0,-1.387752E0,1.8440408E0,6.5906906E-1,2.4986875E0],"split_indices":[13,35,34,18,18,64,0,0,0,0,0,0,0,0,0],"split_type":[0,0,0,0,0,0,0,0,0,0,0,0,0,0,0],"sum_hessian":[2.601E3,2.202E3,3.99E2,1.576E3,6.26E2,6.1E1,3.38E2,1.502E3,7.4E1,4.85E2,1.41E2,5.4E1,7E0,2.26E2,1.12E2],"tree_param":{"num_deleted":"0","num_feature":"81","num_nodes":"15","size_leaf_vector":"1"}},{"base_weights":[5.2359295E-1,-4.1762325E-1,1.8891945E1,-2.672928E0,4.252376E0,9.897775E0,3.5813435E1,-4.474701E-1,4.391546E-1,1.4477675E-1,1.323727E0,-3.877094E-1,2.6312149E0,7.6120744E0,2.2905009E0],"categories":[],"categories_nodes":[],"categories_segments":[],"categories_sizes":[],"default_left":[0,0,0,0,0,0,0,0,0,0,0,0,0,0,0],"id":37,"left_children":[1,3,5,7,9,11,13,-1,-1,-1,-1,-1,-1,-1,-1],"loss_changes":[4.4335836E4,2.571011E4,1.8669875E4,2.0970887E4,2.0014127E4,1.8868799E4,2.062952E4,0E0,0E0,0E0,0E0,0E0,0E0,0E0,0E0],"parents":[2147483647,0,0,1,1,2,2,3,3,4,4,5,5,6,6],"right_children":[2,4,6,8,10,12,14,-1,-1,-1,-1,-1,-1,-1,-1],"split_conditions":[2.2980216E0,4.2025006E-1,2.5153312E-1,7.966259E-1,8.311189E-1,3.29952E-1,-5.274226E-1,-4.474701E-1,4.391546E-1,1.4477675E-1,1.323727E0,-3.877094E-1,2.6312149E0,7.6120744E0,2.2905009E0],"split_indices":[2,40,73,16,15,64,80,0,0,0,0,0,0,0,0],"split_type":[0,0,0,0,0,0,0,0,0,0,0,0,0,0,0],"sum_hessian":[2.563E3,2.439E3,1.24E2,1.645E3,7.94E2,8.2E1,4.2E1,1.311E3,3.34E2,6.06E2,1.88E2,4.5E1,3.7E1,9E0,3.3E1],"tree_param":{"num_deleted":"0","num_feature":"81","num_nodes":"15","size_leaf_vector":"1"}},{"base_weights":[3.9265162E-1,1.1304744E-2,4.102151E1,-4.60879E0,2.8175988E0,6.8923485E1,1.9685429E1,-6.173815E-1,9.021716E-1,4.7144827E-2,1.2837676E0,8.0866165E0,3.0792928E0,-1.6676947E0,2.656248E0],"categories":[],"categories_nodes":[],"categories_segments":[],"categories_sizes":[],"default_left":[0,0,0,0,0,0,0,0,0,0,0,0,0,0,0],"id":38,"left_children":[1,3,5,7,9,11,13,-1,-1,-1,-1,-1,-1,-1,-1],"loss_changes":[3.998875E4,3.3178336E4,1.2930863E4,2.0683826E4,3.741965E4,2.0637031E3,4.1939707E3,0E0,0E0,0E0,0E0,0E0,0E0,0E0,0E0],"parents":[2147483647,0,0,1,1,2,2,3,3,4,4,5,5,6,6],"right_children":[2,4,6,8,10,12,14,-1,-1,-1,-1,-1,-1,-1,-1],"split_conditions":[3.1399386E0,-3.6854252E-1,7.893065E-1,1.095402E0,8.4061265E-1,6.592199E-1,-2.4169512E-1,-6.173815E-1,9.021716E-1,4.7144827E-2,1.2837676E0,8.0866165E0,3.0792928E0,-1.6676947E0,2.656248E0],"split_indices":[2,78,25,21,1,7,0,0,0,0,0,0,0,0,0],"split_type":[0,0,0,0,0,0,0,0,0,0,0,0,0,0,0],"sum_hessian":[2.58E3,2.557E3,2.3E1,9.66E2,1.591E3,9E0,1.4E1,8.67E2,9.9E1,1.29E3,3.01E2,6E0,3E0,2E0,1.2E1],"tree_param":{"num_deleted":"0","num_feature":"81","num_nodes":"15","size_leaf_vector":"1"}},{"base_weights":[-4.907201E-2,-1.6120758E0,8.601265E0,-3.5740979E0,4.039043E0,3.9156063E0,2.4796837E1,-2.6158136E-1,-1.8065948E0,-5.4791135E-1,8.661534E-1,-2.5809973E-1,1.2970109E0,1.7022184E0,5.4085917E0],"categories":[],"categories_nodes":[],"categories_segments":[],"categories_sizes":[],"default_left":[0,0,0,0,0,0,0,0,0,0,0,0,0,0,0],"id":39,"left_children":[1,3,5,7,9,11,13,-1,-1,-1,-1,-1,-1,-1,-1],"loss_changes":[3.4721016E4,2.4130008E4,2.9726465E4,2.2380754E4,2.4730107E4,1.803347E4,1.9118035E4,0E0,0E0,0E0,0E0,0E0,0E0,0E0,0E0],"parents":[2147483647,0,0,1,1,2,2,3,3,4,4,5,5,6,6],"right_children":[2,4,6,8,10,12,14,-1,-1,-1,-1,-1,-1,-1,-1],"split_conditions":[8.620152E-1,4.6579787E-1,1.0196977E0,9.0379995E-1,-2.277295E-1,1.1832437E-2,7.181087E-1,-2.6158136E-1,-1.8065948E0,-5.4791135E-1,8.661534E-1,-2.5809973E-1,1.2970109E0,1.7022184E0,5.4085917E0],"split_indices":[13,35,64,7,2,61,37,0,0,0,0,0,0,0,0],"split_type":[0,0,0,0,0,0,0,0,0,0,0,0,0,0,0],"sum_hessian":[2.566E3,2.174E3,3.92E2,1.614E3,5.6E2,3.05E2,8.7E1,1.515E3,9.9E1,1.83E2,3.77E2,1.78E2,1.27E2,7E1,1.7E1],"tree_param":{"num_deleted":"0","num_feature":"81","num_nodes":"15","size_leaf_vector":"1"}},{"base_weights":[-4.046852E-1,-1.9398799E0,7.8480186E0,-5.9199576E0,4.2795765E-1,4.237172E0,2.1659575E1,-6.7308205E-1,1.4045603E0,-1.770126E-1,1.2482995E0,-1.772633E-1,1.3611234E0,2.6057322E0,-2.1727037E0],"categories":[],"categories_nodes":[],"categories_segments":[],"categories_sizes":[],"default_left":[0,0,0,0,0,0,0,0,0,0,0,0,0,0,0],"id":40,"left_children":[1,3,5,7,9,11,13,-1,-1,-1,-1,-1,-1,-1,-1],"loss_changes":[3.1663652E4,1.9859275E4,1.9457814E4,1.2819355E4,3.505242E4,1.760105E4,1.6021219E4,0E0,0E0,0E0,0E0,0E0,0E0,0E0,0E0],"parents":[2147483647,0,0,1,1,2,2,3,3,4,4,5,5,6,6],"right_children":[2,4,6,8,10,12,14,-1,-1,-1,-1,-1,-1,-1,-1],"split_conditions":[1.4561045E0,-2.538429E-1,7.4121946E-1,1.6791528E0,8.4061265E-1,6.869225E-1,1.5415287E0,-6.7308205E-1,1.4045603E0,-1.770126E-1,1.2482995E0,-1.772633E-1,1.3611234E0,2.6057322E0,-2.1727037E0],"split_indices":[2,35,50,18,1,13,61,0,0,0,0,0,0,0,0],"split_type":[0,0,0,0,0,0,0,0,0,0,0,0,0,0,0],"sum_hessian":[2.497E3,2.106E3,3.91E2,7.85E2,1.321E3,3.11E2,8E1,7.55E2,3E1,1.118E3,2.03E2,1.9E2,1.21E2,7.3E1,7E0],"tree_param":{"num_deleted":"0","num_feature":"81","num_nodes":"15","size_leaf_vector":"1"}},{"base_weights":[-1.0437813E-1,-2.0798939E1,4.7447434E-1,-1.2169296E1,-3.647246E1,2.7337262E-1,5.5367214E1,1.9046225E-1,-1.9738874E0,3.1396744E0,-4.0788374E0,-2.2535446E-1,4.0062165E-1,7.0703263E0,1.852134E0],"categories":[],"categories_nodes":[],"categories_segments":[],"categories_sizes":[],"default_left":[0,0,0,0,0,0,0,0,0,0,0,0,0,0,0],"id":41,"left_children":[1,3,5,7,9,11,13,-1,-1,-1,-1,-1,-1,-1,-1],"loss_changes":[3.0376879E4,8.888883E3,2.721814E4,4.938141E3,8.310641E3,2.3203762E4,3.7761113E3,0E0,0E0,0E0,0E0,0E0,0E0,0E0,0E0],"parents":[2147483647,0,0,1,1,2,2,3,3,4,4,5,5,6,6],"right_children":[2,4,6,8,10,12,14,-1,-1,-1,-1,-1,-1,-1,-1],"split_conditions":[-2.2307136E0,2.6538587E-1,2.4177468E0,4.1900954E-1,-2.3799856E0,2.1609212E-1,8.6915866E-2,1.9046225E-1,-1.9738874E0,3.1396744E0,-4.0788374E0,-2.2535446E-1,4.0062165E-1,7.0703263E0,1.852134E0],"split_indices":[20,1,0,3,62,17,9,0,0,0,0,0,0,0,0],"split_type":[0,0,0,0,0,0,0,0,0,0,0,0,0,0,0],"sum_hessian":[2.534E3,6.8E1,2.466E3,4.5E1,2.3E1,2.458E3,8E0,1.6E1,2.9E1,1E0,2.2E1,1.466E3,9.92E2,5E0,3E0],"tree_param":{"num_deleted":"0","num_feature":"81","num_nodes":"15","size_leaf_vector":"1"}},{"base_weights":[5.0176424E-1,-4.496882E0,2.6722426E0,-6.297123E0,-2.9762253E-1,1.3928226E0,1.6268476E1,-3.476295E-1,-1.0183748E0,-4.664176E-1,6.69217E-1,-7.2173104E-3,1.429581E0,-9.070603E-2,2.4128788E0],"categories":[],"categories_nodes":[],"categories_segments":[],"categories_sizes":[],"default_left":[0,0,0,0,0,0,0,0,0,0,0,0,0,0,0],"id":42,"left_children":[1,3,5,7,9,11,13,-1,-1,-1,-1,-1,-1,-1,-1],"loss_changes":[2.7699822E4,5.841758E3,3.0940965E4,5.8958516E3,7.1426763E3,3.0774828E4,2.067766E4,0E0,0E0,0E0,0E0,0E0,0E0,0E0,0E0],"parents":[2147483647,0,0,1,1,2,2,3,3,4,4,5,5,6,6],"right_children":[2,4,6,8,10,12,14,-1,-1,-1,-1,-1,-1,-1,-1],"split_conditions":[-2.4169512E-1,2.3350696E-1,1.2912825E0,-4.7907463E-1,-6.6935766E-1,1.1086394E0,-3.0743495E-1,-3.476295E-1,-1.0183748E0,-4.664176E-1,6.69217E-1,-7.2173104E-3,1.429581E0,-9.070603E-2,2.4128788E0],"split_indices":[0,69,36,4,1,14,79,0,0,0,0,0,0,0,0],"split_type":[0,0,0,0,0,0,0,0,0,0,0,0,0,0,0],"sum_hessian":[2.551E3,7.72E2,1.779E3,5.4E2,2.32E2,1.627E3,1.52E2,3.14E2,2.26E2,1.43E2,8.9E1,1.462E3,1.65E2,4.8E1,1.04E2],"tree_param":{"num_deleted":"0","num_feature":"81","num_nodes":"15","size_leaf_vector":"1"}},{"base_weights":[8.9871295E-2,-7.009288E-2,5.8395397E1,-4.554386E0,1.5874974E0,1.0650284E0,6.4577875E0,-4.827058E-1,3.3712533E0,-1.6596435E-1,5.0450414E-1],"categories":[],"categories_nodes":[],"categories_segments":[],"categories_sizes":[],"default_left":[0,0,0,0,0,0,0,0,0,0,0],"id":43,"left_children":[1,3,5,7,9,-1,-1,-1,-1,-1,-1],"loss_changes":[2.3862035E4,1.8976557E4,1.3785059E3,7.3519727E3,2.0935746E4,0E0,0E0,0E0,0E0,0E0,0E0],"parents":[2147483647,0,0,1,1,2,2,3,3,4,4],"right_children":[2,4,6,8,10,-1,-1,-1,-1,-1,-1],"split_conditions":[2.4177468E0,-6.90681E-1,4.1900954E-1,3.050959E0,1.1781832E-1,1.0650284E0,6.4577875E0,-4.827058E-1,3.3712533E0,-1.6596435E-1,5.0450414E-1],"split_indices":[0,78,3,53,25,0,0,0,0,0,0],"split_type":[0,0,0,0,0,0,0,0,0,0,0],"sum_hessian":[2.557E3,2.551E3,6E0,6.88E2,1.863E3,1E0,5E0,6.84E2,4E0,9.61E2,9.02E2],"tree_param":{"num_deleted":"0","num_feature":"81","num_nodes":"11","size_leaf_vector":"1"}},{"base_weights":[2.0584805E-2,-7.4274844E-1,1.0938854E1,-6.3022037E0,8.9525086E-1,5.63202E0,3.1688375E1,-7.196309E-1,2.3820665E0,-6.9640875E-2,7.187347E-1,4.555537E0,1.7230506E-1,1.0292577E0,5.247873E0],"categories":[],"categories_nodes":[],"categories_segments":[],"categories_sizes":[],"default_left":[0,0,0,0,0,0,0,0,0,0,0,0,0,0,0],"id":44,"left_children":[1,3,5,7,9,11,13,-1,-1,-1,-1,-1,-1,-1,-1],"loss_changes":[2.142722E4,2.1888283E4,1.8320729E4,1.490377E4,1.8602627E4,2.0989492E4,1.4583949E4,0E0,0E0,0E0,0E0,0E0,0E0,0E0,0E0],"parents":[2147483647,0,0,1,1,2,2,3,3,4,4,5,5,6,6],"right_children":[2,4,6,8,10,12,14,-1,-1,-1,-1,-1,-1,-1,-1],"split_conditions":[1.7136613E0,-5.9943014E-1,1.0954835E0,1.6731031E0,9.2845935E-1,-1.0845504E0,-3.4574184E-1,-7.196309E-1,2.3820665E0,-6.9640875E-2,7.187347E-1,4.555537E0,1.7230506E-1,1.0292577E0,5.247873E0],"split_indices":[78,26,35,0,0,51,37,0,0,0,0,0,0,0,0],"split_type":[0,0,0,0,0,0,0,0,0,0,0,0,0,0,0],"sum_hessian":[2.569E3,2.402E3,1.67E2,5.46E2,1.856E3,1.34E2,3.3E1,5.31E2,1.5E1,1.482E3,3.74E2,1.1E1,1.23E2,1.7E1,1.6E1],"tree_param":{"num_deleted":"0","num_feature":"81","num_nodes":"15","size_leaf_vector":"1"}},{"base_weights":[-1.0748662E-1,-6.3853073E-1,1.8780771E1,-4.319113E0,1.1475946E0,-5.421728E0,2.7429138E1,-2.7331385E-1,-1.2648907E0,2.0877004E-1,-1.0360959E0,1.7661966E0,-1.7434353E0,-1.0211253E0,3.1742468E0],"categories":[],"categories_nodes":[],"categories_segments":[],"categories_sizes":[],"default_left":[0,0,0,0,0,0,0,0,0,0,0,0,0,0,0],"id":45,"left_children":[1,3,5,7,9,11,13,-1,-1,-1,-1,-1,-1,-1,-1],"loss_changes":[2.530891E4,1.6137506E4,1.4591248E4,1.0560521E4,1.790586E4,5.576544E3,8.604258E3,0E0,0E0,0E0,0E0,0E0,0E0,0E0,0E0],"parents":[2147483647,0,0,1,1,2,2,3,3,4,4,5,5,6,6],"right_children":[2,4,6,8,10,12,14,-1,-1,-1,-1,-1,-1,-1,-1],"split_conditions":[1.3353282E0,-4.1696241E-1,-5.0404376E-1,1.3471491E0,1.0263982E0,3.433589E-2,-1.1029218E0,-2.7331385E-1,-1.2648907E0,2.0877004E-1,-1.0360959E0,1.7661966E0,-1.7434353E0,-1.0211253E0,3.1742468E0],"split_indices":[19,20,77,5,4,26,73,0,0,0,0,0,0,0,0],"split_type":[0,0,0,0,0,0,0,0,0,0,0,0,0,0,0],"sum_hessian":[2.521E3,2.453E3,6.8E1,8.01E2,1.652E3,1.8E1,5E1,6.74E2,1.27E2,1.528E3,1.24E2,6E0,1.2E1,5E0,4.5E1],"tree_param":{"num_deleted":"0","num_feature":"81","num_nodes":"15","size_leaf_vector":"1"}},{"base_weights":[1.5538852E-1,-1.4242567E-1,3.9850544E1,-2.0414438E0,4.5237055E0,5.74608E1,1.3899056E1,-6.3544196E-1,3.0142238E-2,-5.324841E-1,7.0033324E-1,1.681187E0,7.060267E0,2.1361034E0,-7.68673E-2],"categories":[],"categories_nodes":[],"categories_segments":[],"categories_sizes":[],"default_left":[0,0,0,0,0,0,0,0,0,0,0,0,0,0,0],"id":46,"left_children":[1,3,5,7,9,11,13,-1,-1,-1,-1,-1,-1,-1,-1],"loss_changes":[3.0163037E4,2.245432E4,7.884586E3,1.8200523E4,1.793768E4,4.6892617E3,1.00147217E3,0E0,0E0,0E0,0E0,0E0,0E0,0E0,0E0],"parents":[2147483647,0,0,1,1,2,2,3,3,4,4,5,5,6,6],"right_children":[2,4,6,8,10,12,14,-1,-1,-1,-1,-1,-1,-1,-1],"split_conditions":[3.1399386E0,2.3173915E-1,3.176585E-2,-2.538429E-1,-7.995915E-1,-5.999675E-1,1.5006475E-1,-6.3544196E-1,3.0142238E-2,-5.324841E-1,7.0033324E-1,1.681187E0,7.060267E0,2.1361034E0,-7.68673E-2],"split_indices":[2,46,44,35,34,67,27,0,0,0,0,0,0,0,0],"split_type":[0,0,0,0,0,0,0,0,0,0,0,0,0,0,0],"sum_hessian":[2.55E3,2.532E3,1.8E1,1.8E3,7.32E2,1E1,8E0,6.33E2,1.167E3,1.47E2,5.85E2,3E0,7E0,5E0,3E0],"tree_param":{"num_deleted":"0","num_feature":"81","num_nodes":"15","size_leaf_vector":"1"}},{"base_weights":[3.298663E-1,-3.6051888E0,2.233662E0,-9.988008E-1,-1.1212636E1,6.0012765E-2,7.435839E0,-5.728573E-1,2.699171E-1,-2.1485765E0,-8.579165E-1,-9.9451505E-2,1.3200392E0,4.498624E-1,1.7741266E0],"categories":[],"categories_nodes":[],"categories_segments":[],"categories_sizes":[],"default_left":[0,0,0,0,0,0,0,0,0,0,0,0,0,0,0],"id":47,"left_children":[1,3,5,7,9,11,13,-1,-1,-1,-1,-1,-1,-1,-1],"loss_changes":[1.9276293E4,1.6624459E4,1.9607121E4,1.0964555E4,5.6052266E3,1.6973967E4,1.5387781E4,0E0,0E0,0E0,0E0,0E0,0E0,0E0,0E0],"parents":[2147483647,0,0,1,1,2,2,3,3,4,4,5,5,6,6],"right_children":[2,4,6,8,10,12,14,-1,-1,-1,-1,-1,-1,-1,-1],"split_conditions":[-2.277295E-1,4.2823166E-1,3.1728742E-1,-1.624605E0,-7.9609144E-1,1.3439361E0,5.45475E-1,-5.728573E-1,2.699171E-1,-2.1485765E0,-8.579165E-1,-9.9451505E-2,1.3200392E0,4.498624E-1,1.7741266E0],"split_indices":[2,21,45,0,27,1,14,0,0,0,0,0,0,0,0],"split_type":[0,0,0,0,0,0,0,0,0,0,0,0,0,0,0],"sum_hessian":[2.571E3,8.38E2,1.733E3,6.25E2,2.13E2,1.223E3,5.1E2,2.74E2,3.51E2,4.2E1,1.71E2,1.133E3,9E1,3.98E2,1.12E2],"tree_param":{"num_deleted":"0","num_feature":"81","num_nodes":"15","size_leaf_vector":"1"}},{"base_weights":[-3.831365E-2,-2.332814E0,3.5470252E0,-3.9781907E0,2.9368932E0,2.905107E0,4.0456345E1,-1.6178986E0,-3.24738E-1,-4.4653177E-1,7.123286E-1,1.3620931E0,9.439168E-2,5.6806545E0,8.983695E-1],"categories":[],"categories_nodes":[],"categories_segments":[],"categories_sizes":[],"default_left":[0,0,0,0,0,0,0,0,0,0,0,0,0,0,0],"id":48,"left_children":[1,3,5,7,9,11,13,-1,-1,-1,-1,-1,-1,-1,-1],"loss_changes":[2.1060045E4,1.3546573E4,2.355154E4,1.0558066E4,1.1559554E4,2.0645645E4,8.237598E3,0E0,0E0,0E0,0E0,0E0,0E0,0E0,0E0],"parents":[2147483647,0,0,1,1,2,2,3,3,4,4,5,5,6,6],"right_children":[2,4,6,8,10,12,14,-1,-1,-1,-1,-1,-1,-1,-1],"split_conditions":[2.1609212E-1,3.1248978E-1,1.9922361E0,-1.9778134E0,-3.9138815E-1,2.9070348E-1,2.7898297E-2,-1.6178986E0,-3.24738E-1,-4.4653177E-1,7.123286E-1,1.3620931E0,9.439168E-2,5.6806545E0,8.983695E-1],"split_indices":[17,46,0,43,9,17,60,0,0,0,0,0,0,0,0],"split_type":[0,0,0,0,0,0,0,0,0,0,0,0,0,0,0],"sum_hessian":[2.558E3,1.56E3,9.98E2,1.189E3,3.71E2,9.82E2,1.6E1,6.6E1,1.123E3,1.34E2,2.37E2,1.51E2,8.31E2,1E1,6E0],"tree_param":{"num_deleted":"0","num_feature":"81","num_nodes":"15","size_leaf_vector":"1"}},{"base_weights":[5.093353E-1,-1.844313E0,4.21676E0,-1.6276752E1,-1.2077705E0,1.6380916E0,1.1153329E1,-3.8918778E-1,-2.81829E0,-8.8120955E-1,-2.1328723E-2,-1.0257963E-4,1.6084194E0,-4.2739415E-1,1.6291516E0],"categories":[],"categories_nodes":[],"categories_segments":[],"categories_sizes":[],"default_left":[0,0,0,0,0,0,0,0,0,0,0,0,0,0,0],"id":49,"left_children":[1,3,5,7,9,11,13,-1,-1,-1,-1,-1,-1,-1,-1],"loss_changes":[2.2651682E4,1.4569077E4,1.8011938E4,9.769877E3,1.1508055E4,1.7427654E4,2.1709848E4,0E0,0E0,0E0,0E0,0E0,0E0,0E0,0E0],"parents":[2147483647,0,0,1,1,2,2,3,3,4,4,5,5,6,6],"right_children":[2,4,6,8,10,12,14,-1,-1,-1,-1,-1,-1,-1,-1],"split_conditions":[6.141875E-1,-2.2307136E0,8.4061265E-1,-9.413087E-2,-1.3691835E0,1.3987156E0,-2.9342237E-1,-3.8918778E-1,-2.81829E0,-8.8120955E-1,-2.1328723E-2,-1.0257963E-4,1.6084194E0,-4.2739415E-1,1.6291516E0],"split_indices":[2,20,1,1,79,78,17,0,0,0,0,0,0,0,0],"split_type":[0,0,0,0,0,0,0,0,0,0,0,0,0,0,0],"sum_hessian":[2.594E3,1.587E3,1.007E3,6.6E1,1.521E3,7.35E2,2.72E2,3.3E1,3.3E1,1.75E2,1.346E3,6.61E2,7.4E1,6.8E1,2.04E2],"tree_param":{"num_deleted":"0","num_feature":"81","num_nodes":"15","size_leaf_vector":"1"}},{"base_weights":[8.094548E-2,-3.7400293E0,1.6958431E0,-1.1841811E1,-1.245045E0,-3.0694267E-1,6.201763E0,-5.240876E-1,-2.1670425E0,-1.7608283E-1,4.1669154E0,-2.6077387E-1,3.0105606E-1,-3.5875604E-1,9.785579E-1],"categories":[],"categories_nodes":[],"categories_segments":[],"categories_sizes":[],"default_left":[0,0,0,0,0,0,0,0,0,0,0,0,0,0,0],"id":50,"left_children":[1,3,5,7,9,11,13,-1,-1,-1,-1,-1,-1,-1,-1],"loss_changes":[1.5889166E4,1.544883E4,1.6336055E4,1.1564471E4,1.3044148E4,9.579504E3,1.9576412E4,0E0,0E0,0E0,0E0,0E0,0E0,0E0,0E0],"parents":[2147483647,0,0,1,1,2,2,3,3,4,4,5,5,6,6],"right_children":[2,4,6,8,10,12,14,-1,-1,-1,-1,-1,-1,-1,-1],"split_conditions":[-3.8590014E-1,-3.3351526E-1,4.2025006E-1,6.010576E-1,2.1540632E0,8.868548E-3,-4.544505E-1,-5.240876E-1,-2.1670425E0,-1.7608283E-1,4.1669154E0,-2.6077387E-1,3.0105606E-1,-3.5875604E-1,9.785579E-1],"split_indices":[45,46,40,7,34,26,0,0,0,0,0,0,0,0,0],"split_type":[0,0,0,0,0,0,0,0,0,0,0,0,0,0,0],"sum_hessian":[2.573E3,7.64E2,1.809E3,1.79E2,5.85E2,1.253E3,5.56E2,1.08E2,7.1E1,5.79E2,6E0,7.4E2,5.13E2,1.49E2,4.07E2],"tree_param":{"num_deleted":"0","num_feature":"81","num_nodes":"15","size_leaf_vector":"1"}},{"base_weights":[-6.1201088E-2,-3.1383228E-1,2.9109001E1,-4.6237367E-1,4.1510685E1,-1.7752964E1,3.7442623E1,-1.2758791E0,-6.1160563E-3,1.9415588E0,6.427566E0,-2.3126075E0,-8.1681825E-2,5.6656528E0,1.4484464E0],"categories":[],"categories_nodes":[],"categories_segments":[],"categories_sizes":[],"default_left":[0,0,0,0,0,0,0,0,0,0,0,0,0,0,0],"id":51,"left_children":[1,3,5,7,9,11,13,-1,-1,-1,-1,-1,-1,-1,-1],"loss_changes":[1.888192E4,1.5799381E4,9.256377E3,1.2490801E4,3.279E3,3.4510925E2,7.5605605E3,0E0,0E0,0E0,0E0,0E0,0E0,0E0,0E0],"parents":[2147483647,0,0,1,1,2,2,3,3,4,4,5,5,6,6],"right_children":[2,4,6,8,10,12,14,-1,-1,-1,-1,-1,-1,-1,-1],"split_conditions":[3.1399386E0,2.350583E0,-1.3531744E-1,-1.934271E0,2.741292E0,-5.2555096E-1,6.838067E-3,-1.2758791E0,-6.1160563E-3,1.9415588E0,6.427566E0,-2.3126075E0,-8.1681825E-2,5.6656528E0,1.4484464E0],"split_indices":[2,1,0,20,3,1,32,0,0,0,0,0,0,0,0],"split_type":[0,0,0,0,0,0,0,0,0,0,0,0,0,0,0],"sum_hessian":[2.56E3,2.539E3,2.1E1,2.531E3,8E0,3E0,1.8E1,7.9E1,2.452E3,5E0,3E0,2E0,1E0,9E0,9E0],"tree_param":{"num_deleted":"0","num_feature":"81","num_nodes":"15","size_leaf_vector":"1"}},{"base_weights":[-9.4218835E-2,-4.082972E0,2.1453557E0,-5.5849543E0,8.547899E0,1.4289457E0,1.5730658E1,-6.615884E-1,1.0279341E0,1.8510889E0,-6.112134E-1,9.823581E-2,1.9043306E0,-9.5001554E-1,2.4158797E0],"categories":[],"categories_nodes":[],"categories_segments":[],"categories_sizes":[],"default_left":[0,0,0,0,0,0,0,0,0,0,0,0,0,0,0],"id":52,"left_children":[1,3,5,7,9,11,13,-1,-1,-1,-1,-1,-1,-1,-1],"loss_changes":[2.2582727E4,1.7292691E4,1.5734674E4,1.3364592E4,1.4280744E4,1.2087613E4,1.7454064E4,0E0,0E0,0E0,0E0,0E0,0E0,0E0,0E0],"parents":[2147483647,0,0,1,1,2,2,3,3,4,4,5,5,6,6],"right_children":[2,4,6,8,10,12,14,-1,-1,-1,-1,-1,-1,-1,-1],"split_conditions":[-2.538429E-1,1.4269311E0,2.2980216E0,1.5374882E0,6.63695E-2,1.6315495E0,-5.5956805E-1,-6.615884E-1,1.0279341E0,1.8510889E0,-6.112134E-1,9.823581E-2,1.9043306E0,-9.5001554E-1,2.4158797E0],"split_indices":[35,55,2,14,70,1,49,0,0,0,0,0,0,0,0],"split_type":[0,0,0,0,0,0,0,0,0,0,0,0,0,0,0],"sum_hessian":[2.526E3,9.08E2,1.618E3,8.12E2,9.6E1,1.538E3,8E1,7.63E2,4.9E1,5.7E1,3.9E1,1.501E3,3.7E1,2E1,6E1],"tree_param":{"num_deleted":"0","num_feature":"81","num_nodes":"15","size_leaf_vector":"1"}},{"base_weights":[-5.077482E-2,-6.0755754E0,1.2054719E0,-1.2231673E1,-1.9411831E0,-2.814307E0,3.0647917E0,-1.7520933E-1,-1.6393442E0,-8.1333476E-1,3.6105496E-1,-2.540644E-1,-6.3450336E0,-4.1221353E-1,4.599752E-1],"categories":[],"categories_nodes":[],"categories_segments":[],"categories_sizes":[],"default_left":[0,0,0,0,0,0,0,0,0,0,0,0,0,0,0],"id":53,"left_children":[1,3,5,7,9,11,13,-1,-1,-1,-1,-1,-1,-1,-1],"loss_changes":[1.9564678E4,1.1327725E4,1.5995627E4,7.7781133E3,9.242467E3,1.1072816E4,1.6158262E4,0E0,0E0,0E0,0E0,0E0,0E0,0E0,0E0],"parents":[2147483647,0,0,1,1,2,2,3,3,4,4,5,5,6,6],"right_children":[2,4,6,8,10,12,14,-1,-1,-1,-1,-1,-1,-1,-1],"split_conditions":[-9.721955E-1,-1.4299177E-1,-4.601848E-1,-3.7392056E-1,-1.031204E0,3.5487304E0,-8.850677E-1,-1.7520933E-1,-1.6393442E0,-8.1333476E-1,3.6105496E-1,-2.540644E-1,-6.3450336E0,-4.1221353E-1,4.599752E-1],"split_indices":[78,47,39,9,64,51,1,0,0,0,0,0,0,0,0],"split_type":[0,0,0,0,0,0,0,0,0,0,0,0,0,0,0],"sum_hessian":[2.583E3,4.45E2,2.138E3,1.78E2,2.67E2,6.76E2,1.462E3,5.1E1,1.27E2,1.26E2,1.41E2,6.74E2,2E0,2.57E2,1.205E3],"tree_param":{"num_deleted":"0","num_feature":"81","num_nodes":"15","size_leaf_vector":"1"}},{"base_weights":[8.726737E-2,-1.4527448E0,3.9455044E0,-1.7518641E0,2.050089E1,6.4314336E-1,9.337463E0,-5.1695555E-1,-5.9723E-3,7.3304214E0,9.968428E-1,-1.6460484E0,2.3560531E-1,5.7068783E-1,2.5996633E0],"categories":[],"categories_nodes":[],"categories_segments":[],"categories_sizes":[],"default_left":[0,0,0,0,0,0,0,0,0,0,0,0,0,0,0],"id":54,"left_children":[1,3,5,7,9,11,13,-1,-1,-1,-1,-1,-1,-1,-1],"loss_changes":[1.5412644E4,1.2210676E4,1.3170578E4,1.0582977E4,1.3172998E4,1.3515388E4,1.6847238E4,0E0,0E0,0E0,0E0,0E0,0E0,0E0,0E0],"parents":[2147483647,0,0,1,1,2,2,3,3,4,4,5,5,6,6],"right_children":[2,4,6,8,10,12,14,-1,-1,-1,-1,-1,-1,-1,-1],"split_conditions":[2.8998473E-1,3.2702456E0,2.5484654E-1,-4.147226E-1,-1.6223533E0,-1.3015809E0,6.38792E-1,-5.1695555E-1,-5.9723E-3,7.3304214E0,9.968428E-1,-1.6460484E0,2.3560531E-1,5.7068783E-1,2.5996633E0],"split_indices":[44,36,79,39,72,32,61,0,0,0,0,0,0,0,0],"split_type":[0,0,0,0,0,0,0,0,0,0,0,0,0,0,0],"sum_hessian":[2.592E3,1.853E3,7.39E2,1.829E3,2.4E1,4.59E2,2.8E2,6.05E2,1.224E3,3E0,2.1E1,4.1E1,4.18E2,2.31E2,4.9E1],"tree_param":{"num_deleted":"0","num_feature":"81","num_nodes":"15","size_leaf_vector":"1"}},{"base_weights":[-7.651693E-2,-5.179716E-1,1.3068181E1,-1.1992984E0,7.870902E0,-4.187813E0,2.2242937E1,-4.6921498E-1,6.706819E-2,4.2829487E-1,2.7395096E0,-1.0305557E0,2.8462021E0,-1.1562151E0,2.7413726E0],"categories":[],"categories_nodes":[],"categories_segments":[],"categories_sizes":[],"default_left":[0,0,0,0,0,0,0,0,0,0,0,0,0,0,0],"id":55,"left_children":[1,3,5,7,9,11,13,-1,-1,-1,-1,-1,-1,-1,-1],"loss_changes":[1.5001174E4,1.4304065E4,1.3391989E4,1.5117185E4,1.3052425E4,6.285617E3,9.9309E3,0E0,0E0,0E0,0E0,0E0,0E0,0E0,0E0],"parents":[2147483647,0,0,1,1,2,2,3,3,4,4,5,5,6,6],"right_children":[2,4,6,8,10,12,14,-1,-1,-1,-1,-1,-1,-1,-1],"split_conditions":[2.2441165E0,1.4805427E0,-3.150497E-1,-2.538429E-1,1.2814974E0,7.7929355E-2,-7.41261E-1,-4.6921498E-1,6.706819E-2,4.2829487E-1,2.7395096E0,-1.0305557E0,2.8462021E0,-1.1562151E0,2.7413726E0],"split_indices":[36,55,79,35,46,26,1,0,0,0,0,0,0,0,0],"split_type":[0,0,0,0,0,0,0,0,0,0,0,0,0,0,0],"sum_hessian":[2.583E3,2.5E3,8.3E1,2.313E3,1.87E2,2.9E1,5.4E1,8.06E2,1.507E3,1.59E2,2.8E1,2.5E1,4E0,7E0,4.7E1],"tree_param":{"num_deleted":"0","num_feature":"81","num_nodes":"15","size_leaf_vector":"1"}},{"base_weights":[7.8584373E-1,-4.721779E-1,6.186605E0,-6.167792E-1,4.196347E1,8.839454E0,-5.221578E0,-3.0916816E-1,1.8062127E-1,4.8081365E0,2.628052E-1,3.9433977E-1,1.65303E0,4.86562E0,-7.6112324E-1],"categories":[],"categories_nodes":[],"categories_segments":[],"categories_sizes":[],"default_left":[0,0,0,0,0,0,0,0,0,0,0,0,0,0,0],"id":56,"left_children":[1,3,5,7,9,11,13,-1,-1,-1,-1,-1,-1,-1,-1],"loss_changes":[1.7226404E4,1.2648152E4,1.4542701E4,1.2304751E4,1.5581895E3,1.4582539E4,1.2086514E4,0E0,0E0,0E0,0E0,0E0,0E0,0E0,0E0],"parents":[2147483647,0,0,1,1,2,2,3,3,4,4,5,5,6,6],"right_children":[2,4,6,8,10,12,14,-1,-1,-1,-1,-1,-1,-1,-1],"split_conditions":[9.2216486E-1,2.4177468E0,1.3276054E-1,-4.157031E-2,8.6915866E-2,6.869225E-1,-1.0526597E0,-3.0916816E-1,1.8062127E-1,4.8081365E0,2.628052E-1,3.9433977E-1,1.65303E0,4.86562E0,-7.6112324E-1],"split_indices":[15,0,53,11,9,13,70,0,0,0,0,0,0,0,0],"split_type":[0,0,0,0,0,0,0,0,0,0,0,0,0,0,0],"sum_hessian":[2.534E3,2.056E3,4.78E2,2.05E3,6E0,3.88E2,9E1,1.014E3,1.036E3,5E0,1E0,2.38E2,1.5E2,3E0,8.7E1],"tree_param":{"num_deleted":"0","num_feature":"81","num_nodes":"15","size_leaf_vector":"1"}},{"base_weights":[-3.241343E-1,-9.3093973E-1,1.123161E1,1.2676929E-1,-6.1420226E0,-1.9232332E1,1.4874273E1,-5.696186E-1,1.2898958E-1,-2.8459093E-2,-1.1503124E0,1.6328706E0,-3.0415225E0,-8.4843063E-1,1.9342387E0],"categories":[],"categories_nodes":[],"categories_segments":[],"categories_sizes":[],"default_left":[0,0,0,0,0,0,0,0,0,0,0,0,0,0,0],"id":57,"left_children":[1,3,5,7,9,11,13,-1,-1,-1,-1,-1,-1,-1,-1],"loss_changes":[1.7849207E4,1.3328333E4,1.4379241E4,1.3627514E4,1.2808859E4,6.064095E3,1.2062146E4,0E0,0E0,0E0,0E0,0E0,0E0,0E0,0E0],"parents":[2147483647,0,0,1,1,2,2,3,3,4,4,5,5,6,6],"right_children":[2,4,6,8,10,12,14,-1,-1,-1,-1,-1,-1,-1,-1],"split_conditions":[2.2980216E0,9.8541117E-1,-8.597214E-1,-4.9179417E-1,-5.754432E-3,-3.7916374E-1,-1.0650823E0,-5.696186E-1,1.2898958E-1,-2.8459093E-2,-1.1503124E0,1.6328706E0,-3.0415225E0,-8.4843063E-1,1.9342387E0],"split_indices":[2,65,12,59,15,42,73,0,0,0,0,0,0,0,0],"split_type":[0,0,0,0,0,0,0,0,0,0,0,0,0,0,0],"sum_hessian":[2.543E3,2.417E3,1.26E2,2.01E3,4.07E2,1.3E1,1.13E2,3.34E2,1.676E3,1.95E2,2.12E2,3E0,1E1,1.8E1,9.5E1],"tree_param":{"num_deleted":"0","num_feature":"81","num_nodes":"15","size_leaf_vector":"1"}},{"base_weights":[-5.348478E-2,-9.0580463E-1,6.4647765E0,-2.8341093E1,-7.0952153E-1,3.4570177E0,2.3544106E1,1.924151E-1,-3.5473392E0,-9.478329E-2,2.134398E0,8.430707E-1,-6.0727453E-1,8.230983E-1,3.5962083E0],"categories":[],"categories_nodes":[],"categories_segments":[],"categories_sizes":[],"default_left":[0,0,0,0,0,0,0,0,0,0,0,0,0,0,0],"id":58,"left_children":[1,3,5,7,9,11,13,-1,-1,-1,-1,-1,-1,-1,-1],"loss_changes":[1.4172747E4,1.212864E4,1.5072905E4,3.5220293E3,1.1798027E4,1.1995514E4,8.070949E3,0E0,0E0,0E0,0E0,0E0,0E0,0E0,0E0],"parents":[2147483647,0,0,1,1,2,2,3,3,4,4,5,5,6,6],"right_children":[2,4,6,8,10,12,14,-1,-1,-1,-1,-1,-1,-1,-1],"split_conditions":[1.0713977E0,-1.7819967E0,9.2845935E-1,-1.1648735E0,1.9922361E0,-8.961676E-2,-1.6105974E-1,1.924151E-1,-3.5473392E0,-9.478329E-2,2.134398E0,8.430707E-1,-6.0727453E-1,8.230983E-1,3.5962083E0],"split_indices":[36,75,0,21,0,22,68,0,0,0,0,0,0,0,0],"split_type":[0,0,0,0,0,0,0,0,0,0,0,0,0,0,0],"sum_hessian":[2.549E3,2.255E3,2.94E2,1.5E1,2.24E3,2.51E2,4.3E1,3E0,1.2E1,2.217E3,2.3E1,1.65E2,8.6E1,2E1,2.3E1],"tree_param":{"num_deleted":"0","num_feature":"81","num_nodes":"15","size_leaf_vector":"1"}},{"base_weights":[-4.0383127E-1,-2.7647972E0,2.0899074E0,-3.8155239E0,6.713011E0,-1.2879191E1,2.8149061E0,-4.9176618E-1,5.9598106E-1,4.1533518E-1,2.9430456E0,-2.1211278E0,2.389238E0,1.4438926E-1,1.084814E0],"categories":[],"categories_nodes":[],"categories_segments":[],"categories_sizes":[],"default_left":[0,0,0,0,0,0,0,0,0,0,0,0,0,0,0],"id":59,"left_children":[1,3,5,7,9,11,13,-1,-1,-1,-1,-1,-1,-1,-1],"loss_changes":[1.4889711E4,1.2961816E4,1.3384928E4,1.2634617E4,7.4371245E3,1.7970668E4,1.2914387E4,0E0,0E0,0E0,0E0,0E0,0E0,0E0,0E0],"parents":[2147483647,0,0,1,1,2,2,3,3,4,4,5,5,6,6],"right_children":[2,4,6,8,10,12,14,-1,-1,-1,-1,-1,-1,-1,-1],"split_conditions":[2.3355374E-2,1.4391128E0,-1.4608134E0,9.1788906E-1,1.03156E0,5.239866E-1,9.8441935E-1,-4.9176618E-1,5.9598106E-1,4.1533518E-1,2.9430456E0,-2.1211278E0,2.389238E0,1.4438926E-1,1.084814E0],"split_indices":[23,15,56,56,66,49,1,0,0,0,0,0,0,0,0],"split_type":[0,0,0,0,0,0,0,0,0,0,0,0,0,0,0],"sum_hessian":[2.527E3,1.298E3,1.229E3,1.169E3,1.29E2,5.6E1,1.173E3,1.051E3,1.18E2,1.17E2,1.2E1,4.6E1,1E1,1.003E3,1.7E2],"tree_param":{"num_deleted":"0","num_feature":"81","num_nodes":"15","size_leaf_vector":"1"}},{"base_weights":[2.4119626E-1,-2.380549E0,1.78325E0,-3.5461087E0,5.948147E0,-6.772108E-1,5.1332006E0,5.741719E-1,-4.6494204E-1,5.1309515E-2,2.100948E0,-2.525995E-1,6.652691E-1,-7.1768385E-1,8.78385E-1],"categories":[],"categories_nodes":[],"categories_segments":[],"categories_sizes":[],"default_left":[0,0,0,0,0,0,0,0,0,0,0,0,0,0,0],"id":60,"left_children":[1,3,5,7,9,11,13,-1,-1,-1,-1,-1,-1,-1,-1],"loss_changes":[1.0370169E4,9.243307E3,1.3314986E4,8.573001E3,9.566738E3,1.2646714E4,3.0801754E4,0E0,0E0,0E0,0E0,0E0,0E0,0E0,0E0],"parents":[2147483647,0,0,1,1,2,2,3,3,4,4,5,5,6,6],"right_children":[2,4,6,8,10,12,14,-1,-1,-1,-1,-1,-1,-1,-1],"split_conditions":[-4.0918818E-1,1.0759935E0,1.4147231E-1,-1.1153996E0,4.5102403E-1,5.547417E-1,-7.3749393E-1,5.741719E-1,-4.6494204E-1,5.1309515E-2,2.100948E0,-2.525995E-1,6.652691E-1,-7.1768385E-1,8.78385E-1],"split_indices":[78,15,17,52,26,46,45,0,0,0,0,0,0,0,0],"split_type":[0,0,0,0,0,0,0,0,0,0,0,0,0,0,0],"sum_hessian":[2.563E3,9.49E2,1.614E3,8.33E2,1.16E2,9.31E2,6.83E2,8.8E1,7.45E2,8.6E1,3E1,7.44E2,1.87E2,1.56E2,5.27E2],"tree_param":{"num_deleted":"0","num_feature":"81","num_nodes":"15","size_leaf_vector":"1"}},{"base_weights":[-1.8169671E-1,-1.3402579E0,3.963335E0,1.3042206E0,-3.9601128E0,-3.7506685E0,8.06956E0,-3.3267513E-2,1.0288293E0,-4.923957E-1,1.0774596E0,3.945758E0,-5.074497E-1,9.0834093E-1,-3.9069307E0],"categories":[],"categories_nodes":[],"categories_segments":[],"categories_sizes":[],"default_left":[0,0,0,0,0,0,0,0,0,0,0,0,0,0,0],"id":61,"left_children":[1,3,5,7,9,11,13,-1,-1,-1,-1,-1,-1,-1,-1],"loss_changes":[1.2486418E4,1.4083165E4,1.802191E4,1.4885884E4,1.4553256E4,1.1525887E4,1.808562E4,0E0,0E0,0E0,0E0,0E0,0E0,0E0,0E0],"parents":[2147483647,0,0,1,1,2,2,3,3,4,4,5,5,6,6],"right_children":[2,4,6,8,10,12,14,-1,-1,-1,-1,-1,-1,-1,-1],"split_conditions":[5.9021044E-1,-9.512793E-2,-1.3531744E-1,9.252982E-1,1.5662956E0,-5.79453E-1,2.3589416E0,-3.3267513E-2,1.0288293E0,-4.923957E-1,1.0774596E0,3.945758E0,-5.074497E-1,9.0834093E-1,-3.9069307E0],"split_indices":[17,65,0,20,54,5,71,0,0,0,0,0,0,0,0],"split_type":[0,0,0,0,0,0,0,0,0,0,0,0,0,0,0],"sum_hessian":[2.598E3,2.031E3,5.67E2,1.011E3,1.02E3,1.97E2,3.7E2,8.56E2,1.55E2,9.58E2,6.2E1,5E0,1.92E2,3.63E2,7E0],"tree_param":{"num_deleted":"0","num_feature":"81","num_nodes":"15","size_leaf_vector":"1"}},{"base_weights":[-1.3313854E-1,-3.427453E-1,2.2125662E1,8.632922E0,-8.484842E-1,4.593964E1,4.774632E0,1.1483318E0,-1.9219528E0,1.3354809E0,-1.1792739E-1,2.4436774E0,6.2555156E0,-3.3038433E0,1.3133444E0],"categories":[],"categories_nodes":[],"categories_segments":[],"categories_sizes":[],"default_left":[0,0,0,0,0,0,0,0,0,0,0,0,0,0,0],"id":62,"left_children":[1,3,5,7,9,11,13,-1,-1,-1,-1,-1,-1,-1,-1],"loss_changes":[1.2002828E4,1.1573576E4,9.697384E3,1.1017808E4,1.1352749E4,2.044166E3,5.1749927E3,0E0,0E0,0E0,0E0,0E0,0E0,0E0,0E0],"parents":[2147483647,0,0,1,1,2,2,3,3,4,4,5,5,6,6],"right_children":[2,4,6,8,10,12,14,-1,-1,-1,-1,-1,-1,-1,-1],"split_conditions":[3.1399386E0,-1.5153013E0,7.893065E-1,1.5323068E0,-1.9945513E0,-1.14349745E-1,-2.4169512E-1,1.1483318E0,-1.9219528E0,1.3354809E0,-1.1792739E-1,2.4436774E0,6.2555156E0,-3.3038433E0,1.3133444E0],"split_indices":[2,58,25,32,41,67,0,0,0,0,0,0,0,0,0],"split_type":[0,0,0,0,0,0,0,0,0,0,0,0,0,0,0],"sum_hessian":[2.57E3,2.547E3,2.3E1,1.35E2,2.412E3,9E0,1.4E1,1.23E2,1.2E1,5.4E1,2.358E3,5E0,4E0,2E0,1.2E1],"tree_param":{"num_deleted":"0","num_feature":"81","num_nodes":"15","size_leaf_vector":"1"}},{"base_weights":[-4.553448E-1,-4.932351E0,9.822908E-1,1.5415826E-1,-7.953664E0,3.354779E1,7.808675E-1,2.5135183E-1,-1.141056E0,-2.4912412E0,-6.073482E-1,-1.2271103E0,4.393868E0,1.3220012E-1,-1.0009472E0],"categories":[],"categories_nodes":[],"categories_segments":[],"categories_sizes":[],"default_left":[0,0,0,0,0,0,0,0,0,0,0,0,0,0,0],"id":63,"left_children":[1,3,5,7,9,11,13,-1,-1,-1,-1,-1,-1,-1,-1],"loss_changes":[1.6629816E4,9.65229E3,1.2804087E4,6.440734E3,1.2411596E4,6.2523643E3,1.1370118E4,0E0,0E0,0E0,0E0,0E0,0E0,0E0,0E0],"parents":[2147483647,0,0,1,1,2,2,3,3,4,4,5,5,6,6],"right_children":[2,4,6,8,10,12,14,-1,-1,-1,-1,-1,-1,-1,-1],"split_conditions":[-7.840871E-1,1.2502135E-1,-2.0854642E0,2.0999037E-1,-1.460822E-2,-1.192045E0,2.0041387E0,2.5135183E-1,-1.141056E0,-2.4912412E0,-6.073482E-1,-1.2271103E0,4.393868E0,1.3220012E-1,-1.0009472E0],"split_indices":[78,7,44,22,13,34,38,0,0,0,0,0,0,0,0],"split_type":[0,0,0,0,0,0,0,0,0,0,0,0,0,0,0],"sum_hessian":[2.582E3,6.27E2,1.955E3,2.34E2,3.93E2,1.1E1,1.944E3,1.95E2,3.9E1,3.8E1,3.55E2,2E0,9E0,1.852E3,9.2E1],"tree_param":{"num_deleted":"0","num_feature":"81","num_nodes":"15","size_leaf_vector":"1"}},{"base_weights":[-1.615919E-2,-3.1112506E0,1.4197173E0,-1.3859658E0,-1.1014205E1,7.958431E-1,1.3601588E1,-1.4139212E0,-1.9199705E-2,-1.2407738E0,4.1209736E0,-1.471866E-1,4.2669535E-1,1.658346E0,-3.7425053E0],"categories":[],"categories_nodes":[],"categories_segments":[],"categories_sizes":[],"default_left":[0,0,0,0,0,0,0,0,0,0,0,0,0,0,0],"id":64,"left_children":[1,3,5,7,9,11,13,-1,-1,-1,-1,-1,-1,-1,-1],"loss_changes":[1.1359269E4,1.1028963E4,1.3258695E4,1.0138453E4,1.1063801E4,1.3088662E4,1.3553805E4,0E0,0E0,0E0,0E0,0E0,0E0,0E0,0E0],"parents":[2147483647,0,0,1,1,2,2,3,3,4,4,5,5,6,6],"right_children":[2,4,6,8,10,12,14,-1,-1,-1,-1,-1,-1,-1,-1],"split_conditions":[-3.8877553E-1,8.2214665E-1,1.679731E0,-9.0009665E-1,2.0392458E0,2.1609212E-1,1.071587E0,-1.4139212E0,-1.9199705E-2,-1.2407738E0,4.1209736E0,-1.471866E-1,4.2669535E-1,1.658346E0,-3.7425053E0],"split_indices":[35,48,69,47,78,17,26,0,0,0,0,0,0,0,0],"split_type":[0,0,0,0,0,0,0,0,0,0,0,0,0,0,0],"sum_hessian":[2.554E3,8.09E2,1.745E3,6.65E2,1.44E2,1.661E3,8.4E1,5.6E1,6.09E2,1.41E2,3E0,1.005E3,6.56E2,8E1,4E0],"tree_param":{"num_deleted":"0","num_feature":"81","num_nodes":"15","size_leaf_vector":"1"}},{"base_weights":[9.281836E-2,-5.2921347E-2,4.629892E0,-2.2177975E-1,2.49909E1,-1.2741229E-1,3.9713928E-1,4.277789E0,1.1400008E0],"categories":[],"categories_nodes":[],"categories_segments":[],"categories_sizes":[],"default_left":[0,0,0,0,0,0,0,0,0],"id":65,"left_children":[1,3,-1,5,7,-1,-1,-1,-1],"loss_changes":[1.7133906E4,1.073416E4,0E0,1.1129365E4,3.6219287E3,0E0,0E0,0E0,0E0],"parents":[2147483647,0,0,1,1,3,3,4,4],"right_children":[2,4,-1,6,8,-1,-1,-1,-1],"split_conditions":[5.3779564E0,2.2049913E0,4.629892E0,6.688812E-1,1.4561045E0,-1.2741229E-1,3.9713928E-1,4.277789E0,1.1400008E0],"split_indices":[56,0,0,45,2,0,0,0,0],"split_type":[0,0,0,0,0,0,0,0,0],"sum_hessian":[2.543E3,2.536E3,7E0,2.52E3,1.6E1,2.015E3,5.05E2,6E0,1E1],"tree_param":{"num_deleted":"0","num_feature":"81","num_nodes":"9","size_leaf_vector":"1"}},{"base_weights":[-2.5722682E-3,-3.7944827E0,1.3690138E0,-1.2473373E1,-1.2702949E0,2.2191482E0,-6.9275737E0,-1.9920282E0,-3.4872648E-1,-8.517318E-1,1.8223244E-1,-5.382323E-1,3.2425988E-1,3.5025342E0,-8.6142963E-1],"categories":[],"categories_nodes":[],"categories_segments":[],"categories_sizes":[],"default_left":[0,0,0,0,0,0,0,0,0,0,0,0,0,0,0],"id":66,"left_children":[1,3,5,7,9,11,13,-1,-1,-1,-1,-1,-1,-1,-1],"loss_changes":[1.3392394E4,1.49686455E4,1.3352999E4,1.0236016E4,1.1916443E4,1.3367472E4,1.2755994E4,0E0,0E0,0E0,0E0,0E0,0E0,0E0,0E0],"parents":[2147483647,0,0,1,1,2,2,3,3,4,4,5,5,6,6],"right_children":[2,4,6,8,10,12,14,-1,-1,-1,-1,-1,-1,-1,-1],"split_conditions":[-4.7379857E-1,-6.060803E-1,1.3187557E0,5.446462E-2,-5.83383E-1,-1.1248976E0,-1.9274863E0,-1.9920282E0,-3.4872648E-1,-8.517318E-1,1.8223244E-1,-5.382323E-1,3.2425988E-1,3.5025342E0,-8.6142963E-1],"split_indices":[45,59,33,73,26,78,51,0,0,0,0,0,0,0,0],"split_type":[0,0,0,0,0,0,0,0,0,0,0,0,0,0,0],"sum_hessian":[2.573E3,6.83E2,1.89E3,1.53E2,5.3E2,1.715E3,1.75E2,8.3E1,7E1,1.58E2,3.72E2,2.03E2,1.512E3,6E0,1.69E2],"tree_param":{"num_deleted":"0","num_feature":"81","num_nodes":"15","size_leaf_vector":"1"}},{"base_weights":[2.4687491E-1,-8.4304243E-1,4.7704067E0,-1.8929179E0,4.998093E0,-1.0952117E0,1.0279277E1,8.2434826E-2,-6.21398E-1,7.2040176E-1,-1.7309569E0,1.9661998E-2,-3.499176E0,-2.8705733E0,1.1630808E0],"categories":[],"categories_nodes":[],"categories_segments":[],"categories_sizes":[],"default_left":[0,0,0,0,0,0,0,0,0,0,0,0,0,0,0],"id":67,"left_children":[1,3,5,7,9,11,13,-1,-1,-1,-1,-1,-1,-1,-1],"loss_changes":[1.2798088E4,1.2838577E4,1.6296976E4,2.0834498E4,1.5822375E4,1.0735096E4,1.4033125E4,0E0,0E0,0E0,0E0,0E0,0E0,0E0,0E0],"parents":[2147483647,0,0,1,1,2,2,3,3,4,4,5,5,6,6],"right_children":[2,4,6,8,10,12,14,-1,-1,-1,-1,-1,-1,-1,-1],"split_conditions":[8.870469E-1,1.4561045E0,2.9019326E-1,2.2647616E-1,8.490796E-1,8.3366674E-1,-1.9866023E0,8.2434826E-2,-6.21398E-1,7.2040176E-1,-1.7309569E0,1.9661998E-2,-3.499176E0,-2.8705733E0,1.1630808E0],"split_indices":[76,2,0,21,5,4,34,0,0,0,0,0,0,0,0],"split_type":[0,0,0,0,0,0,0,0,0,0,0,0,0,0,0],"sum_hessian":[2.594E3,2.091E3,5.03E2,1.773E3,3.18E2,2.44E2,2.59E2,1.089E3,6.84E2,2.9E2,2.8E1,2.36E2,8E0,8E0,2.51E2],"tree_param":{"num_deleted":"0","num_feature":"81","num_nodes":"15","size_leaf_vector":"1"}},{"base_weights":[2.3472575E-2,-1.0139061E0,3.8465364E0,-1.9788445E0,3.2151484E0,3.3857005E0,3.930807E1,-1.1146927E-1,-1.0186701E0,1.8989379E-2,1.9955094E0,-5.286028E-1,5.1278347E-1,-6.929703E-1,4.8169317E0],"categories":[],"categories_nodes":[],"categories_segments":[],"categories_sizes":[],"default_left":[0,0,0,0,0,0,0,0,0,0,0,0,0,0,0],"id":68,"left_children":[1,3,5,7,9,11,13,-1,-1,-1,-1,-1,-1,-1,-1],"loss_changes":[1.0275749E4,8.322986E3,8.904013E3,1.1762747E4,1.9189756E4,8.290807E3,3.20187E3,0E0,0E0,0E0,0E0,0E0,0E0,0E0,0E0],"parents":[2147483647,0,0,1,1,2,2,3,3,4,4,5,5,6,6],"right_children":[2,4,6,8,10,12,14,-1,-1,-1,-1,-1,-1,-1,-1],"split_conditions":[8.311189E-1,9.2845935E-1,2.3356698E0,8.615315E-1,7.940068E-1,-4.6238682E-1,4.0049586E-1,-1.1146927E-1,-1.0186701E0,1.8989379E-2,1.9955094E0,-5.286028E-1,5.1278347E-1,-6.929703E-1,4.8169317E0],"split_indices":[15,0,43,4,78,58,4,0,0,0,0,0,0,0,0],"split_type":[0,0,0,0,0,0,0,0,0,0,0,0,0,0,0],"sum_hessian":[2.589E3,2.037E3,5.52E2,1.659E3,3.78E2,5.46E2,6E0,1.502E3,1.57E2,3.21E2,5.7E1,9.1E1,4.55E2,1E0,5E0],"tree_param":{"num_deleted":"0","num_feature":"81","num_nodes":"15","size_leaf_vector":"1"}},{"base_weights":[-6.5237604E-2,-1.931982E-1,3.6666702E1,2.8615307E-2,-1.9070482E1,-3.3683166E-1,4.209212E0,-1.0572698E-1,3.6853078E-1,-2.4600825E0,1.3501403E0],"categories":[],"categories_nodes":[],"categories_segments":[],"categories_sizes":[],"default_left":[0,0,0,0,0,0,0,0,0,0,0],"id":69,"left_children":[1,3,5,7,9,-1,-1,-1,-1,-1,-1],"loss_changes":[1.2185408E4,1.0816177E4,2.0966396E3,1.0145187E4,5.7361562E3,0E0,0E0,0E0,0E0,0E0,0E0],"parents":[2147483647,0,0,1,1,2,2,3,3,4,4],"right_children":[2,4,6,8,10,-1,-1,-1,-1,-1,-1],"split_conditions":[5.3779564E0,3.2965915E0,-1.8811953E0,7.356632E-1,1.0734941E0,-3.3683166E-1,4.209212E0,-1.0572698E-1,3.6853078E-1,-2.4600825E0,1.3501403E0],"split_indices":[56,56,44,35,73,0,0,0,0,0,0],"split_type":[0,0,0,0,0,0,0,0,0,0,0],"sum_hessian":[2.59E3,2.582E3,8E0,2.553E3,2.9E1,1E0,7E0,1.969E3,5.84E2,2.5E1,4E0],"tree_param":{"num_deleted":"0","num_feature":"81","num_nodes":"11","size_leaf_vector":"1"}},{"base_weights":[-2.508226E-1,-1.5845324E0,2.3110313E0,-1.7749556E0,2.7711573E1,6.585136E-2,9.191118E0,-7.155109E-2,-7.522341E-1,-7.635048E-1,4.192094E0,7.773369E-2,-2.4203014E0,-5.965559E-1,1.3883625E0],"categories":[],"categories_nodes":[],"categories_segments":[],"categories_sizes":[],"default_left":[0,0,0,0,0,0,0,0,0,0,0,0,0,0,0],"id":70,"left_children":[1,3,5,7,9,11,13,-1,-1,-1,-1,-1,-1,-1,-1],"loss_changes":[8.801845E3,9.499432E3,1.362368E4,1.0248555E4,5.8448516E3,1.15186E4,1.5516475E4,0E0,0E0,0E0,0E0,0E0,0E0,0E0,0E0],"parents":[2147483647,0,0,1,1,2,2,3,3,4,4,5,5,6,6],"right_children":[2,4,6,8,10,12,14,-1,-1,-1,-1,-1,-1,-1,-1],"split_conditions":[7.02379E-2,1.9910662E0,8.029939E-1,2.1643952E-1,-5.407052E-2,1.847242E0,-6.776385E-1,-7.155109E-2,-7.522341E-1,-7.635048E-1,4.192094E0,7.773369E-2,-2.4203014E0,-5.965559E-1,1.3883625E0],"split_indices":[46,1,34,60,14,77,9,0,0,0,0,0,0,0,0],"split_type":[0,0,0,0,0,0,0,0,0,0,0,0,0,0,0],"sum_hessian":[2.574E3,1.693E3,8.81E2,1.683E3,1E1,6.65E2,2.16E2,1.422E3,2.61E2,3E0,7E0,6.47E2,1.8E1,5.1E1,1.65E2],"tree_param":{"num_deleted":"0","num_feature":"81","num_nodes":"15","size_leaf_vector":"1"}},{"base_weights":[-2.417643E-2,8.367701E-1,-5.6831927E0,-2.1327059E-1,8.695049E0,-2.7194653E0,-2.1792587E1,-7.9615675E-2,8.1747144E-1,7.2599E-1,3.3906667E0,-1.142031E0,2.506422E-1,-3.3597188E0,-2.2047548E-1],"categories":[],"categories_nodes":[],"categories_segments":[],"categories_sizes":[],"default_left":[0,0,0,0,0,0,0,0,0,0,0,0,0,0,0],"id":71,"left_children":[1,3,5,7,9,11,13,-1,-1,-1,-1,-1,-1,-1,-1],"loss_changes":[1.261865E4,1.8551254E4,1.6269134E4,9.70676E3,9.342189E3,1.3214816E4,1.2180932E4,0E0,0E0,0E0,0E0,0E0,0E0,0E0,0E0],"parents":[2147483647,0,0,1,1,2,2,3,3,4,4,5,5,6,6],"right_children":[2,4,6,8,10,12,14,-1,-1,-1,-1,-1,-1,-1,-1],"split_conditions":[8.615315E-1,8.296113E-1,1.0480453E0,1.3215669E0,1.2337351E0,6.093263E-1,4.480016E-1,-7.9615675E-2,8.1747144E-1,7.2599E-1,3.3906667E0,-1.142031E0,2.506422E-1,-3.3597188E0,-2.2047548E-1],"split_indices":[4,16,53,54,80,0,68,0,0,0,0,0,0,0,0],"split_type":[0,0,0,0,0,0,0,0,0,0,0,0,0,0,0],"sum_hessian":[2.588E3,2.247E3,3.41E2,1.983E3,2.64E2,2.89E2,5.2E1,1.855E3,1.28E2,2.51E2,1.3E1,1.08E2,1.81E2,3.2E1,2E1],"tree_param":{"num_deleted":"0","num_feature":"81","num_nodes":"15","size_leaf_vector":"1"}},{"base_weights":[-3.9339042E-1,-4.4787474E0,6.434718E-1,-1.4131195E1,-2.4445274E0,-5.2983594E0,1.578492E0,-1.58892E0,2.8077703E0,-3.5282296E-1,2.4345593E0,-2.4758957E-1,-1.9297949E0,1.6668547E0,1.2053131E-1],"categories":[],"categories_nodes":[],"categories_segments":[],"categories_sizes":[],"default_left":[0,0,0,0,0,0,0,0,0,0,0,0,0,0,0],"id":72,"left_children":[1,3,5,7,9,11,13,-1,-1,-1,-1,-1,-1,-1,-1],"loss_changes":[1.0965526E4,1.0254303E4,1.1480951E4,7.1986445E3,1.2686006E4,1.1055471E4,1.0031763E4,0E0,0E0,0E0,0E0,0E0,0E0,0E0,0E0],"parents":[2147483647,0,0,1,1,2,2,3,3,4,4,5,5,6,6],"right_children":[2,4,6,8,10,12,14,-1,-1,-1,-1,-1,-1,-1,-1],"split_conditions":[-7.814431E-1,-4.1426587E-1,-1.0480468E0,1.577835E0,1.5914456E0,2.8708774E-1,-2.2686746E0,-1.58892E0,2.8077703E0,-3.5282296E-1,2.4345593E0,-2.4758957E-1,-1.9297949E0,1.6668547E0,1.2053131E-1],"split_indices":[45,46,38,76,71,26,51,0,0,0,0,0,0,0,0],"split_type":[0,0,0,0,0,0,0,0,0,0,0,0,0,0,0],"sum_hessian":[2.587E3,5.23E2,2.064E3,9E1,4.33E2,2.8E2,1.784E3,8.7E1,3E0,4.17E2,1.6E1,2.34E2,4.6E1,4.2E1,1.742E3],"tree_param":{"num_deleted":"0","num_feature":"81","num_nodes":"15","size_leaf_vector":"1"}},{"base_weights":[-6.391568E-2,4.142355E-1,-7.9903817E0,-3.7565663E0,1.3401759E0,2.4226795E1,-1.1296725E1,-3.2684293E0,-2.736351E-1,8.7517224E-2,1.2041521E0,1.8150534E-1,5.3806605E0,-1.5705136E0,7.619177E-1],"categories":[],"categories_nodes":[],"categories_segments":[],"categories_sizes":[],"default_left":[0,0,0,0,0,0,0,0,0,0,0,0,0,0,0],"id":73,"left_children":[1,3,5,7,9,11,13,-1,-1,-1,-1,-1,-1,-1,-1],"loss_changes":[9.793007E3,9.416519E3,1.593228E4,1.2984607E4,9.916908E3,9.183431E3,1.1293793E4,0E0,0E0,0E0,0E0,0E0,0E0,0E0,0E0],"parents":[2147483647,0,0,1,1,2,2,3,3,4,4,5,5,6,6],"right_children":[2,4,6,8,10,12,14,-1,-1,-1,-1,-1,-1,-1,-1],"split_conditions":[1.5813917E0,-9.721955E-1,-1.4935693E0,-2.2288733E0,2.741292E0,5.6853837E-1,7.39759E-1,-3.2684293E0,-2.736351E-1,8.7517224E-2,1.2041521E0,1.8150534E-1,5.3806605E0,-1.5705136E0,7.619177E-1],"split_indices":[66,78,59,43,3,19,48,0,0,0,0,0,0,0,0],"split_type":[0,0,0,0,0,0,0,0,0,0,0,0,0,0,0],"sum_hessian":[2.582E3,2.436E3,1.46E2,4.42E2,1.994E3,1.3E1,1.33E2,1.4E1,4.28E2,1.912E3,8.2E1,8E0,5E0,1.08E2,2.5E1],"tree_param":{"num_deleted":"0","num_feature":"81","num_nodes":"15","size_leaf_vector":"1"}},{"base_weights":[2.4524157E-1,2.7069552E0,-1.6434363E0,-1.8960726E0,5.523793E0,-2.4601674E0,1.0662088E1,-8.549512E-2,-2.8196025E0,-2.8448665E-1,8.049289E-1,-1.113339E0,-1.3784716E-1,6.1950094E-1,4.5779223E0],"categories":[],"categories_nodes":[],"categories_segments":[],"categories_sizes":[],"default_left":[0,0,0,0,0,0,0,0,0,0,0,0,0,0,0],"id":74,"left_children":[1,3,5,7,9,11,13,-1,-1,-1,-1,-1,-1,-1,-1],"loss_changes":[1.1855729E4,1.4363818E4,1.4528817E4,1.1503481E4,1.4542652E4,1.2687596E4,1.3834788E4,0E0,0E0,0E0,0E0,0E0,0E0,0E0,0E0],"parents":[2147483647,0,0,1,1,2,2,3,3,4,4,5,5,6,6],"right_children":[2,4,6,8,10,12,14,-1,-1,-1,-1,-1,-1,-1,-1],"split_conditions":[-2.3582312E-1,-2.277295E-1,1.5662956E0,1.712307E0,-9.877343E-1,-1.0318322E0,1.8258674E0,-8.549512E-2,-2.8196025E0,-2.8448665E-1,8.049289E-1,-1.113339E0,-1.3784716E-1,6.1950094E-1,4.5779223E0],"split_indices":[65,2,54,40,78,20,64,0,0,0,0,0,0,0,0],"split_type":[0,0,0,0,0,0,0,0,0,0,0,0,0,0,0],"sum_hessian":[2.548E3,1.106E3,1.442E3,4.2E2,6.86E2,1.353E3,8.9E1,4.05E2,1.5E1,1.59E2,5.27E2,1.49E2,1.204E3,8E1,9E0],"tree_param":{"num_deleted":"0","num_feature":"81","num_nodes":"15","size_leaf_vector":"1"}},{"base_weights":[-1.6357285E-1,-5.2134137E0,7.0462304E-1,-1.9905698E0,-1.4120787E1,-5.54902E-1,3.9741037E0,-4.294516E-1,2.25718E0,-2.8623743E0,-6.215874E-1,7.2715394E-2,-5.9554243E-1,-3.0960143E-1,6.7801136E-1],"categories":[],"categories_nodes":[],"categories_segments":[],"categories_sizes":[],"default_left":[0,0,0,0,0,0,0,0,0,0,0,0,0,0,0],"id":75,"left_children":[1,3,5,7,9,11,13,-1,-1,-1,-1,-1,-1,-1,-1],"loss_changes":[1.1266815E4,1.079446E4,9.032963E3,1.5829058E4,1.1286537E4,1.0971585E4,1.2122675E4,0E0,0E0,0E0,0E0,0E0,0E0,0E0,0E0],"parents":[2147483647,0,0,1,1,2,2,3,3,4,4,5,5,6,6],"right_children":[2,4,6,8,10,12,14,-1,-1,-1,-1,-1,-1,-1,-1],"split_conditions":[-6.9290733E-1,8.351333E-1,6.904787E-1,8.925964E-1,7.1570396E-1,2.814833E-1,-5.8157974E-1,-4.294516E-1,2.25718E0,-2.8623743E0,-6.215874E-1,7.2715394E-2,-5.9554243E-1,-3.0960143E-1,6.7801136E-1],"split_indices":[59,4,15,16,0,15,77,0,0,0,0,0,0,0,0],"split_type":[0,0,0,0,0,0,0,0,0,0,0,0,0,0,0],"sum_hessian":[2.568E3,3.76E2,2.192E3,2.77E2,9.9E1,1.583E3,6.09E2,2.54E2,2.3E1,3.4E1,6.5E1,1.28E3,3.03E2,1.73E2,4.36E2],"tree_param":{"num_deleted":"0","num_feature":"81","num_nodes":"15","size_leaf_vector":"1"}},{"base_weights":[-8.505352E-2,-5.387669E0,6.6245836E-1,4.6315165E0,-8.704948E0,7.184782E-2,7.296063E0,-2.0522037E0,6.948318E-1,-9.895407E-1,3.233394E0,1.0591798E0,-3.325995E-2,4.465046E-1,3.5010521E0],"categories":[],"categories_nodes":[],"categories_segments":[],"categories_sizes":[],"default_left":[0,0,0,0,0,0,0,0,0,0,0,0,0,0,0],"id":76,"left_children":[1,3,5,7,9,11,13,-1,-1,-1,-1,-1,-1,-1,-1],"loss_changes":[1.0234055E4,1.0642742E4,8.865631E3,4.804658E3,1.2045178E4,8.84918E3,1.4358794E4,0E0,0E0,0E0,0E0,0E0,0E0,0E0,0E0],"parents":[2147483647,0,0,1,1,2,2,3,3,4,4,5,5,6,6],"right_children":[2,4,6,8,10,12,14,-1,-1,-1,-1,-1,-1,-1,-1],"split_conditions":[-1.1833466E0,-3.6468688E-1,1.2912825E0,-8.7180686E-1,2.8088813E0,-1.7158564E0,6.406665E-1,-2.0522037E0,6.948318E-1,-9.895407E-1,3.233394E0,1.0591798E0,-3.325995E-2,4.465046E-1,3.5010521E0],"split_indices":[50,21,36,40,60,58,58,0,0,0,0,0,0,0,0],"split_type":[0,0,0,0,0,0,0,0,0,0,0,0,0,0,0],"sum_hessian":[2.58E3,3.18E2,2.262E3,7.9E1,2.39E2,2.078E3,1.84E2,6E0,7.3E1,2.33E2,6E0,7.6E1,2.002E3,1.68E2,1.6E1],"tree_param":{"num_deleted":"0","num_feature":"81","num_nodes":"15","size_leaf_vector":"1"}},{"base_weights":[-5.1514745E-1,-4.3030767E0,5.4557955E-1,-5.786102E0,6.9884853E0,-5.5985123E-2,7.8563557E0,-3.0613995E-1,-1.3349802E0,-4.9019238E-1,1.9403657E0,-4.0262785E-2,1.184427E0,4.1555175E-1,2.469889E0],"categories":[],"categories_nodes":[],"categories_segments":[],"categories_sizes":[],"default_left":[0,0,0,0,0,0,0,0,0,0,0,0,0,0,0],"id":77,"left_children":[1,3,5,7,9,11,13,-1,-1,-1,-1,-1,-1,-1,-1],"loss_changes":[1.021198E4,9.351031E3,8.734679E3,1.0098676E4,9.69051E3,7.5785195E3,9.309418E3,0E0,0E0,0E0,0E0,0E0,0E0,0E0,0E0],"parents":[2147483647,0,0,1,1,2,2,3,3,4,4,5,5,6,6],"right_children":[2,4,6,8,10,12,14,-1,-1,-1,-1,-1,-1,-1,-1],"split_conditions":[-7.0148426E-1,1.1749295E0,1.3279163E0,1.9004907E-1,-5.752316E-2,1.4076486E0,6.782149E-1,-3.0613995E-1,-1.3349802E0,-4.9019238E-1,1.9403657E0,-4.0262785E-2,1.184427E0,4.1555175E-1,2.469889E0],"split_indices":[39,17,18,8,74,13,79,0,0,0,0,0,0,0,0],"split_type":[0,0,0,0,0,0,0,0,0,0,0,0,0,0,0],"sum_hessian":[2.54E3,5.55E2,1.985E3,4.91E2,6.4E1,1.835E3,1.5E2,3.62E2,1.29E2,3.3E1,3.1E1,1.784E3,5.1E1,1.24E2,2.6E1],"tree_param":{"num_deleted":"0","num_feature":"81","num_nodes":"15","size_leaf_vector":"1"}},{"base_weights":[-7.0243254E-2,-6.544929E-1,5.29869E0,-7.6371044E-1,3.5761627E1,1.0150364E1,-4.4669952E0,-1.6796027E-1,2.8317645E-1,4.216846E0,-1.3396911E-1,-4.695108E-1,1.4033968E0,-7.354341E-1,4.3201404E0],"categories":[],"categories_nodes":[],"categories_segments":[],"categories_sizes":[],"default_left":[0,0,0,0,0,0,0,0,0,0,0,0,0,0,0],"id":78,"left_children":[1,3,5,7,9,11,13,-1,-1,-1,-1,-1,-1,-1,-1],"loss_changes":[8.1183623E3,9.310277E3,1.2079842E4,7.6710176E3,1.7204072E3,9.867059E3,1.2016706E4,0E0,0E0,0E0,0E0,0E0,0E0,0E0,0E0],"parents":[2147483647,0,0,1,1,2,2,3,3,4,4,5,5,6,6],"right_children":[2,4,6,8,10,12,14,-1,-1,-1,-1,-1,-1,-1,-1],"split_conditions":[1.1591456E0,2.2786796E0,2.2357613E-1,7.128304E-1,6.778283E-1,-8.6958593E-1,1.6780128E0,-1.6796027E-1,2.8317645E-1,4.216846E0,-1.3396911E-1,-4.695108E-1,1.4033968E0,-7.354341E-1,4.3201404E0],"split_indices":[60,1,5,45,23,39,28,0,0,0,0,0,0,0,0],"split_type":[0,0,0,0,0,0,0,0,0,0,0,0,0,0,0],"sum_hessian":[2.586E3,2.333E3,2.53E2,2.327E3,6E0,1.69E2,8.4E1,1.855E3,4.72E2,5E0,1E0,3.5E1,1.34E2,8E1,4E0],"tree_param":{"num_deleted":"0","num_feature":"81","num_nodes":"15","size_leaf_vector":"1"}},{"base_weights":[-1.1699402E-1,-2.8345224E-1,2.2098194E1,1.6464223E-1,-7.511602E0,2.8215841E1,-7.8969425E-1,2.1272726E-1,-2.1199091E-1,9.1902685E-1,-1.0818337E0,4.115158E-1,3.8796594E0],"categories":[],"categories_nodes":[],"categories_segments":[],"categories_sizes":[],"default_left":[0,0,0,0,0,0,0,0,0,0,0,0,0],"id":79,"left_children":[1,3,5,7,9,11,-1,-1,-1,-1,-1,-1,-1],"loss_changes":[9.447004E3,8.211833E3,3.7093125E3,1.0711657E4,8.273267E3,3.9203975E3,0E0,0E0,0E0,0E0,0E0,0E0,0E0],"parents":[2147483647,0,0,1,1,2,2,3,3,4,4,5,5],"right_children":[2,4,6,8,10,12,-1,-1,-1,-1,-1,-1,-1],"split_conditions":[1.9910662E0,1.6803615E0,2.4052444E0,4.2738408E-1,-9.3197507E-1,-1.0913008E0,-7.8969425E-1,2.1272726E-1,-2.1199091E-1,9.1902685E-1,-1.0818337E0,4.115158E-1,3.8796594E0],"split_indices":[1,5,57,7,55,39,0,0,0,0,0,0,0],"split_type":[0,0,0,0,0,0,0,0,0,0,0,0,0],"sum_hessian":[2.552E3,2.534E3,1.8E1,2.387E3,1.47E2,1.5E1,3E0,1.284E3,1.103E3,2.4E1,1.23E2,5E0,1E1],"tree_param":{"num_deleted":"0","num_feature":"81","num_nodes":"13","size_leaf_vector":"1"}},{"base_weights":[2.0023115E-1,1.492795E0,-3.5008843E0,2.4273689E0,-5.3536625E0,-2.3495169E0,-1.894321E1,3.422655E0,2.2543354E-1,-3.1149095E-1,-2.434656E0,-3.4630862E-1,1.069765E0,-9.610696E-1,-3.5841012E0],"categories":[],"categories_nodes":[],"categories_segments":[],"categories_sizes":[],"default_left":[0,0,0,0,0,0,0,0,0,0,0,0,0,0,0],"id":80,"left_children":[1,3,5,7,9,11,13,-1,-1,-1,-1,-1,-1,-1,-1],"loss_changes":[1.2290354E4,1.2195779E4,1.1779055E4,9.14474E3,9.661335E3,9.044979E3,6.9096973E3,0E0,0E0,0E0,0E0,0E0,0E0,0E0,0E0],"parents":[2147483647,0,0,1,1,2,2,3,3,4,4,5,5,6,6],"right_children":[2,4,6,8,10,12,14,-1,-1,-1,-1,-1,-1,-1,-1],"split_conditions":[7.187397E-1,1.0719371E0,1.1320554E0,-3.0276449E0,1.5552878E0,1.4991244E0,1.6385037E-1,3.422655E0,2.2543354E-1,-3.1149095E-1,-2.434656E0,-3.4630862E-1,1.069765E0,-9.610696E-1,-3.5841012E0],"split_indices":[65,22,26,51,38,44,38,0,0,0,0,0,0,0,0],"split_type":[0,0,0,0,0,0,0,0,0,0,0,0,0,0,0],"sum_hessian":[2.567E3,1.903E3,6.64E2,1.675E3,2.28E2,6.19E2,4.5E1,8E0,1.667E3,2.05E2,2.3E1,5.71E2,4.8E1,3E1,1.5E1],"tree_param":{"num_deleted":"0","num_feature":"81","num_nodes":"15","size_leaf_vector":"1"}},{"base_weights":[3.4598917E-1,-2.7443364E0,1.7404004E0,7.117972E-1,-7.412741E0,-2.4976459E-1,4.4577684E0,-1.0543572E-1,2.26639E0,-3.9524114E-1,-1.686551E0,-7.237549E-1,7.769718E-2,2.774195E-1,1.8551883E0],"categories":[],"categories_nodes":[],"categories_segments":[],"categories_sizes":[],"default_left":[0,0,0,0,0,0,0,0,0,0,0,0,0,0,0],"id":81,"left_children":[1,3,5,7,9,11,13,-1,-1,-1,-1,-1,-1,-1,-1],"loss_changes":[1.097596E4,1.2783906E4,9.492173E3,1.7703383E4,1.0956508E4,7.28068E3,1.755506E4,0E0,0E0,0E0,0E0,0E0,0E0,0E0,0E0],"parents":[2147483647,0,0,1,1,2,2,3,3,4,4,5,5,6,6],"right_children":[2,4,6,8,10,12,14,-1,-1,-1,-1,-1,-1,-1,-1],"split_conditions":[-5.131998E-1,4.2738408E-1,3.9657095E-1,3.7050596E-1,5.6418085E-1,-5.2940875E-1,1.1453012E0,-1.0543572E-1,2.26639E0,-3.9524114E-1,-1.686551E0,-7.237549E-1,7.769718E-2,2.774195E-1,1.8551883E0],"split_indices":[37,7,0,19,66,57,80,0,0,0,0,0,0,0,0],"split_type":[0,0,0,0,0,0,0,0,0,0,0,0,0,0,0],"sum_hessian":[2.545E3,7.91E2,1.754E3,4.55E2,3.36E2,1.013E3,7.41E2,4.22E2,3.3E1,2.47E2,8.9E1,1.29E2,8.84E2,6.63E2,7.8E1],"tree_param":{"num_deleted":"0","num_feature":"81","num_nodes":"15","size_leaf_vector":"1"}},{"base_weights":[9.885688E-2,-7.048702E-1,5.3941274E0,-1.9326303E0,2.5309167E0,7.1785265E-1,1.3667549E1,-6.830072E-2,-6.2715346E-1,-1.2546676E0,3.6903608E-1,-4.6747765E-1,1.4585475E0,2.969037E0,9.231869E-1],"categories":[],"categories_nodes":[],"categories_segments":[],"categories_sizes":[],"default_left":[0,0,0,0,0,0,0,0,0,0,0,0,0,0,0],"id":82,"left_children":[1,3,5,7,9,11,13,-1,-1,-1,-1,-1,-1,-1,-1],"loss_changes":[1.09160625E4,8.852251E3,1.3066999E4,8.752238E3,1.0762539E4,1.6296081E4,8.396697E3,0E0,0E0,0E0,0E0,0E0,0E0,0E0,0E0],"parents":[2147483647,0,0,1,1,2,2,3,3,4,4,5,5,6,6],"right_children":[2,4,6,8,10,12,14,-1,-1,-1,-1,-1,-1,-1,-1],"split_conditions":[6.205513E-1,7.030666E-1,3.3744392E-1,4.7543445E-1,-1.5492226E0,4.0918592E-1,-1.2753968E0,-6.830072E-2,-6.2715346E-1,-1.2546676E0,3.6903608E-1,-4.6747765E-1,1.4585475E0,2.969037E0,9.231869E-1],"split_indices":[56,15,17,41,79,75,54,0,0,0,0,0,0,0,0],"split_type":[0,0,0,0,0,0,0,0,0,0,0,0,0,0,0],"sum_hessian":[2.563E3,2.226E3,3.37E2,1.614E3,6.12E2,2.16E2,1.21E2,1.254E3,3.6E2,4.3E1,5.69E2,1.56E2,6E1,2.5E1,9.6E1],"tree_param":{"num_deleted":"0","num_feature":"81","num_nodes":"15","size_leaf_vector":"1"}},{"base_weights":[-2.7424397E-3,-2.622728E-1,1.24645605E1,-4.121012E0,5.9740907E-1,2.806863E1,2.1569848E0,-9.023765E-1,3.2552728E-1,1.5828572E-1,-3.489418E-1,1.1516492E0,5.9527693E0,4.3687243E0,-1.9316529E-1],"categories":[],"categories_nodes":[],"categories_segments":[],"categories_sizes":[],"default_left":[0,0,0,0,0,0,0,0,0,0,0,0,0,0,0],"id":83,"left_children":[1,3,5,7,9,11,13,-1,-1,-1,-1,-1,-1,-1,-1],"loss_changes":[8.409472E3,8.448278E3,8.463984E3,1.6809518E4,8.394506E3,1.0249459E4,5.6878613E3,0E0,0E0,0E0,0E0,0E0,0E0,0E0,0E0],"parents":[2147483647,0,0,1,1,2,2,3,3,4,4,5,5,6,6],"right_children":[2,4,6,8,10,12,14,-1,-1,-1,-1,-1,-1,-1,-1],"split_conditions":[1.4076486E0,-4.189451E-1,-1.6650477E-1,3.71069E-1,8.781561E-1,2.3955621E-1,-1.3826369E0,-9.023765E-1,3.2552728E-1,1.5828572E-1,-3.489418E-1,1.1516492E0,5.9527693E0,4.3687243E0,-1.9316529E-1],"split_indices":[13,59,48,62,32,58,80,0,0,0,0,0,0,0,0],"split_type":[0,0,0,0,0,0,0,0,0,0,0,0,0,0,0],"sum_hessian":[2.597E3,2.545E3,5.2E1,4.63E2,2.082E3,2E1,3.2E1,2.78E2,1.85E2,1.678E3,4.04E2,1.4E1,6E0,2E0,3E1],"tree_param":{"num_deleted":"0","num_feature":"81","num_nodes":"15","size_leaf_vector":"1"}},{"base_weights":[3.6737353E-2,-1.3208793E-1,1.6781494E1,-2.2057459E-1,2.8332882E1,-7.568603E0,3.0117933E1,-2.7855647E-1,6.644824E-2,-8.341889E-1,3.4763832E0,1.527216E0,-1.9539238E0,-1.1059544E0,3.9731648E0],"categories":[],"categories_nodes":[],"categories_segments":[],"categories_sizes":[],"default_left":[0,0,0,0,0,0,0,0,0,0,0,0,0,0,0],"id":84,"left_children":[1,3,5,7,9,11,13,-1,-1,-1,-1,-1,-1,-1,-1],"loss_changes":[7.3635635E3,6.5021567E3,8.671285E3,5.840709E3,2.1768252E3,3.0325908E3,7.169176E3,0E0,0E0,0E0,0E0,0E0,0E0,0E0,0E0],"parents":[2147483647,0,0,1,1,2,2,3,3,4,4,5,5,6,6],"right_children":[2,4,6,8,10,12,14,-1,-1,-1,-1,-1,-1,-1,-1],"split_conditions":[3.2702456E0,4.485943E0,-2.060692E-1,-5.8549917E-1,-1.0288744E0,-3.988347E-1,-5.606241E-1,-2.7855647E-1,6.644824E-2,-8.341889E-1,3.4763832E0,1.527216E0,-1.9539238E0,-1.1059544E0,3.9731648E0],"split_indices":[36,56,13,72,1,67,71,0,0,0,0,0,0,0,0],"split_type":[0,0,0,0,0,0,0,0,0,0,0,0,0,0,0],"sum_hessian":[2.603E3,2.578E3,2.5E1,2.571E3,7E0,9E0,1.6E1,6.59E2,1.912E3,1E0,6E0,3E0,6E0,3E0,1.3E1],"tree_param":{"num_deleted":"0","num_feature":"81","num_nodes":"15","size_leaf_vector":"1"}},{"base_weights":[1.915082E-1,2.8134888E-1,-3.252503E1,-2.426679E1,3.9739633E-1,1.6077576E0,-5.852656E0,6.49453E-2,-3.6806092E0,1.1392521E-1,-3.6025247E-1,3.2515666E-1,-1.6618347E-1],"categories":[],"categories_nodes":[],"categories_segments":[],"categories_sizes":[],"default_left":[0,0,0,0,0,0,0,0,0,0,0,0,0],"id":85,"left_children":[1,3,5,7,9,11,-1,-1,-1,-1,-1,-1,-1],"loss_changes":[7.513123E3,7.2654062E3,6.3066294E3,3.7730923E3,7.52934E3,2.6901905E1,0E0,0E0,0E0,0E0,0E0,0E0,0E0],"parents":[2147483647,0,0,1,1,2,2,3,3,4,4,5,5],"right_children":[2,4,6,8,10,12,-1,-1,-1,-1,-1,-1,-1],"split_conditions":[3.1644506E0,-2.4811902E0,-6.679126E-1,-2.0219412E-1,1.0823827E0,1.2001294E0,-5.852656E0,6.49453E-2,-3.6806092E0,1.1392521E-1,-3.6025247E-1,3.2515666E-1,-1.6618347E-1],"split_indices":[35,34,56,20,65,1,0,0,0,0,0,0,0],"split_type":[0,0,0,0,0,0,0,0,0,0,0,0,0],"sum_hessian":[2.552E3,2.546E3,6E0,1.1E1,2.535E3,3E0,3E0,4E0,7E0,2.139E3,3.96E2,2E0,1E0],"tree_param":{"num_deleted":"0","num_feature":"81","num_nodes":"13","size_leaf_vector":"1"}},{"base_weights":[1.9611508E-1,3.7261598E-2,1.7592405E1,3.5007414E-1,-7.697249E0,-2.5180206E1,2.792244E1,-2.2438928E-2,6.8784136E-1,1.2706755E0,-1.0967354E0,-3.0592868E0,-1.7647782E-1,4.875303E0,1.1708509E0],"categories":[],"categories_nodes":[],"categories_segments":[],"categories_sizes":[],"default_left":[0,0,0,0,0,0,0,0,0,0,0,0,0,0,0],"id":86,"left_children":[1,3,5,7,9,11,13,-1,-1,